svm_type c_svc
kernel_type rbf
gamma 0.0909091
nr_class 2
total_sv 9
rho 0.501602
label 5 6
nr_sv 3 6
SV
1 1:-656.74689 2:-4.7286662 3:0.19726438 4:2.0186046 5:3.1623045 6:-0.43089003 7:0.43605004 8:-0.030809689 9:0.03701979 10:0.0012259627 11:-0.0048606648 
1 1:-729.6277 2:-65.32992 3:3.0584736 4:1.4080233 5:-0.75625737 6:-0.1683302 7:-0.40590776 8:0.015068119 9:-0.10296962 10:-0.21957864 11:0.054245774 
1 1:141.27972 2:179.33248 3:1.5761582 4:-0.83644349 5:-1.242456 6:-1.1442091 7:0.52150439 8:-0.071845461 9:0.04086977 10:-0.034065313 11:-0.019197722 
-0.5109469467321239 1:-724.65591 2:-65.28958 3:-0.92089843 4:-0.089219935 5:-0.83847739 6:0.85066594 7:0.80973396 8:-0.50489189 9:0.011649616 10:-0.051477713 11:-0.0037448133 
-0.4950662444295402 1:-717.28808 2:-65.283198 3:-0.88668232 4:-0.17119778 5:-0.7371088 6:0.30596502 7:0.56001903 8:0.65105065 9:0.17431081 10:-0.013594209 11:0.00068026625 
-0.4982021293095408 1:4268.4716 2:-58.913512 3:0.88194869 4:0.17614578 5:0.14253438 6:0.13578668 7:0.086467106 8:-0.0010749084 9:0.042820715 10:0.016335802 11:0.0084254984 
-0.4987940366098158 1:-56.904977 2:-6.3696607 3:-2.059821 4:1.073065 5:-0.39761575 6:-0.016794171 7:-0.81888359 8:-0.089775096 9:0.23213751 10:-0.11246381 11:-0.063690699 
-0.4981966063091636 1:254.97911 2:7.678727 3:-5.1529565 4:-1.6895951 5:0.48740946 6:-0.34960011 7:-0.12644742 8:0.04490093 9:-0.25900786 10:-0.094487985 11:0.022814686 
-0.4987940366098158 1:-323.67129 2:-55.778613 3:1.4143648 4:0.84536758 5:-0.58704204 6:0.092000127 7:-0.095914674 8:0.11357303 9:-0.38194109 10:0.15111089 11:-0.055670075 
