svm_type c_svc
kernel_type rbf
gamma 0.05
nr_class 2
total_sv 16
rho -0.90139
label 3 5
nr_sv 14 2
SV
0.09866964061681582 1:-1325.9831 2:-16.409531 3:8.8144688 4:3.3482856 5:-1.5286573 6:-0.79049263 7:1.5823266 8:1.0237591 9:0.20194492 10:0.25202599 11:-0.0013516747 12:0.11873508 13:0.0091187761 14:0.13485269 15:-0.10420996 16:0.025860076 17:-0.010012564 18:-0.035067364 19:0.021176297 20:-0.017057438 
0.3336386239971884 1:-1452.6615 2:-85.608951 3:-59.00122 4:-0.20138687 5:-2.6392194 6:-0.37348179 7:-1.0433525 8:-0.64816973 9:0.45873202 10:-0.54575849 11:-0.33522665 12:0.23501802 13:0.10318727 14:-0.035536667 15:0.068861468 16:0.098222959 17:0.0012233695 18:-0.026450088 19:-0.01317259 20:-0.0050113512 
0.09842320525634846 1:-1281.9128 2:9.5318316 3:35.630069 4:4.6488809 5:4.2968755 6:-1.8095189 7:0.54362133 8:-0.29475327 9:0.58227356 10:0.22438822 11:-0.24120594 12:0.28273014 13:-0.10293828 14:-0.11867266 15:0.0335017 16:0.0097978964 17:-0.036115259 18:0.0091338924 19:0.024300923 20:0.0073218121 
0.09461536334458989 1:-1438.3849 2:-82.478688 3:-59.387977 4:-0.28955875 5:-2.0084537 6:0.37432524 7:-1.5580778 8:0.85373061 9:1.0603705 10:0.43988654 11:0.56051251 12:0.12532552 13:0.018568792 14:-0.0089313704 15:-0.02998243 16:-0.023252505 17:0.0018463346 18:0.028812604 19:-0.0031314465 20:0.004052909 
0.09842320525634846 1:-1156.1125 2:35.806068 3:29.935028 4:4.1058264 5:1.5603884 6:4.9715894 7:0.36815361 8:0.17670593 9:0.50948491 10:-0.63951335 11:-0.18470337 12:0.012200918 13:-0.069222004 14:-0.012181568 15:-0.068300626 16:-0.053547602 17:0.004557618 18:-0.0014791189 19:-0.0048064599 20:-0.0013361474 
0.09863075564460327 1:3533.9867 2:1075.6782 3:-78.220238 4:-0.5571655 5:0.4174587 6:0.29527589 7:-0.72073808 8:-0.10459086 9:0.17019103 10:0.060128641 11:0.0019410209 12:-0.012349105 13:-0.042766869 14:0.079922897 15:0.087615846 16:-0.033028236 17:-0.01278484 18:-0.022373667 19:0.010122513 20:-0.0017862999 
0.4914815810316011 1:-1452.4884 2:-86.40244 3:-59.390858 4:-0.42513595 5:4.0281489 6:-0.5050131 7:0.59391979 8:0.79703818 9:0.30917025 10:-0.098220123 11:0.053798543 12:-0.43419353 13:0.17492159 14:0.077176965 15:0.052767383 16:0.034679066 17:-0.022639297 18:-0.002474618 19:-0.017755697 20:0.0079619929 
0.0946222789507028 1:-1433.6926 2:-88.2034 3:-59.970891 4:-0.35898478 5:-1.332466 6:-0.53266559 7:-1.0430412 8:-0.95891129 9:0.11903366 10:0.47061994 11:-0.5034882 12:-0.48044016 13:-0.078500187 14:-0.039297206 15:-0.094852438 16:-0.021266787 17:0.0081106575 18:-0.0082904929 19:0.0092040145 20:-0.001303891 
0.09863075564460316 1:3034.7648 2:-303.89243 3:88.418799 4:8.4882094 5:2.5860443 6:1.1972154 7:-1.2432506 8:-0.23031794 9:-0.43120006 10:0.60017974 11:-0.20513825 12:0.22405834 13:0.17945294 14:0.040267627 15:-0.046792026 16:-0.010793973 17:0.001888862 18:-0.010016182 19:-0.012866083 20:-0.0019187614 
0.09842320525634835 1:1736.9559 2:-323.06697 3:-53.183297 4:3.0327791 5:-2.47107 6:-0.81939839 7:1.4723051 8:-0.18798958 9:0.28517197 10:0.050319378 11:-0.41696032 12:0.10058331 13:0.0045622892 14:0.10778065 15:0.089537872 16:-0.070033123 17:0.028786722 18:0.039820265 19:-0.0089703226 20:0.0059359133 
0.09863217960708842 1:-948.079 2:-118.60471 3:-54.177999 4:-0.64100694 5:-1.5836108 6:-0.42525432 7:-0.54024472 8:0.48161677 9:-0.89177452 10:-0.48373805 11:0.0038009425 12:0.027532948 13:0.1603159 14:-0.049281306 15:-0.006931341 16:-0.080141818 17:-0.040852602 18:0.009672644 19:0.035894984 20:0.003380007 
0.09866964061681588 1:1092.7854 2:-213.6516 3:-8.6059373 4:-9.90913 5:1.6233945 6:-0.49363752 7:-0.30251113 8:1.4372931 9:-0.18554571 10:-0.087749482 11:-0.0073414066 12:-0.0063427669 13:-0.041277073 14:-0.074585957 15:0.039920456 16:0.0056078078 17:0.088776652 18:-0.026795471 19:0.017888273 20:0.0037335909 
0.09871635952059771 1:-509.29576 2:107.48555 3:158.55603 4:-35.083144 5:-0.50579784 6:0.084041878 7:0.13442575 8:-0.36199494 9:0.051282098 10:0.077974298 11:-0.059547748 12:0.028733043 13:0.022760643 14:0.03062248 15:-0.0037985216 16:-0.0086591925 17:-0.018275813 18:0.0092298575 19:-0.0066398198 20:-0.00040072478 
0.09842320525634835 1:6148.1693 2:-589.03257 3:9.2983148 4:-0.49535306 5:-1.2563082 6:-0.10489735 7:0.26419857 8:0.013115331 9:0.27490852 10:-0.2696668 11:0.24301349 12:-0.17555619 13:-0.10208151 14:-0.060100446 15:-0.018986963 16:0.035728701 17:-0.043041855 18:-0.0080523765 19:0.00065089285 20:-0.0012959116 
-1 1:-1455.0332 2:-86.780509 3:-60.037912 4:-0.35143798 5:1.0587695 6:-0.57863664 7:0.15171412 8:0.30037797 9:-0.53621885 10:0.14734913 11:0.1186728 12:0.014477331 13:-0.088291939 14:-0.099785575 15:0.079077475 16:-0.056415423 17:-0.011855736 18:0.00184403 19:-0.03514059 20:-0.025244455 
-1 1:-851.00563 2:210.3816 3:206.83828 4:13.717298 5:-1.9859832 6:-0.5724299 7:0.68643079 8:-0.86284613 9:0.2470558 10:-0.0084439338 11:0.34174715 12:-0.19779707 13:0.098934841 14:-0.078563124 15:0.069057638 16:-0.033206775 17:0.02483159 18:-0.016791209 19:0.0037986763 20:-0.00039473254 
