svm_type c_svc
kernel_type rbf
gamma 0.04
nr_class 2
total_sv 18
rho -0.304211
label 4 6
nr_sv 11 7
SV
0.6961706263934955 1:718.81249 2:887.74429 3:25.591582 4:0.061541363 5:1.1193847 6:0.5805122 7:-0.43543754 8:-0.53349219 9:0.15804757 10:0.082991952 11:0.16198084 12:-0.15502672 13:-0.04831461 14:0.075000737 15:-0.0061945025 16:-0.0038571398 17:-0.0025667815 18:-0.00227323 19:0.0016175339 20:0.0013475415 21:-0.00069153254 22:-0.002276198 23:-0.00025821441 24:0.00038758133 25:-0.00012322198 
0.3199081509095786 1:-440.74422 2:-76.734331 3:1.6388026 4:2.4790033 5:2.1682442 6:0.21946348 7:1.7351323 8:3.2664156 9:0.19972842 10:0.3594733 11:0.13518265 12:-0.2738341 13:0.12896984 14:0.17016073 15:-0.10199925 16:-0.019079243 17:-0.00065087035 18:-0.00033287056 19:0.001159257 20:0.0026533447 21:0.004600093 22:-0.002439968 23:1.7133285e-005 24:-0.00011217731 25:-7.0561568e-005 
0.695782564865741 1:-307.22335 2:-53.450045 3:0.21539079 4:2.5131298 5:-0.78304872 6:-0.49512767 7:0.024025984 8:-0.87250207 9:0.80680958 10:-0.049948405 11:0.22997033 12:0.16737441 13:0.22159053 14:-0.11249493 15:-0.11520276 16:-0.031262001 17:0.057225991 18:0.010096437 19:0.028641739 20:0.012520095 21:-0.022899432 22:0.0034651315 23:-0.00099072309 24:-0.00035274587 25:-0.0022849764 
0.695782564865741 1:-306.9373 2:73.899687 3:-5.4928315 4:2.5586526 5:1.5410069 6:-0.14468253 7:-1.7224678 8:0.97513544 9:-0.66106826 10:0.053124177 11:0.41491041 12:0.081185131 13:0.023487649 14:0.086808817 15:0.11768456 16:0.049570625 17:0.074361847 18:0.022957682 19:-0.010955754 20:-0.0030827687 21:0.00051818479 22:0.0090253845 23:-0.00021610173 24:-0.0012334078 25:6.834358e-005 
0.656847774846232 1:-435.38421 2:-73.17508 3:1.5011909 4:2.6773924 5:3.4774683 6:-0.9044833 7:0.16025711 8:-0.6582036 9:0.19805443 10:0.57970714 11:-0.033551628 12:0.22769677 13:-0.047857502 14:-0.024290485 15:-0.0054458723 16:0.0094193457 17:-0.028802354 18:0.0055293232 19:-0.0076528644 20:-0.019868828 21:0.002737449 22:0.0066308511 23:-0.0056404512 24:-0.00073075812 25:-0.013715392 
0.695782564865741 1:-6.4491273 2:86.983253 3:-6.7880831 4:2.4178449 5:-2.2777548 6:-0.87718664 7:-1.8372541 8:0.40392066 9:0.41987905 10:0.034859292 11:-0.23080797 12:-0.27283629 13:0.33500435 14:0.017147749 15:0.058182755 16:0.021562511 17:-0.051763783 18:-0.022331353 19:0.015866884 20:-0.0013635479 21:-0.0077493803 22:0.017103725 23:0.0006476124 24:-0.0037631574 25:0.002510788 
0.695782564865741 1:-389.61183 2:-52.148031 3:0.45588959 4:2.7075945 5:0.36985409 6:-2.2114518 7:-0.37892641 8:-0.42482397 9:-0.90504321 10:0.10394946 11:0.28425429 12:0.16743819 13:-0.059266531 14:-0.012717949 15:-0.027475366 16:-0.052484428 17:0.00078577621 18:-0.051781365 19:-0.00018005563 20:0.010196383 21:0.011707803 22:0.00076763843 23:-0.014157078 24:-0.0019755894 25:0.0046456557 
0.3854363691928693 1:-440.76914 2:-77.456202 3:1.9926773 4:2.4823373 5:4.8862265 6:-0.68364972 7:0.010902729 8:0.062181896 9:0.52244998 10:-0.85912571 11:0.18081818 12:0.04151171 13:0.18532189 14:0.013479786 15:0.090972249 16:-0.088469701 17:-0.021140774 18:0.013690125 19:-0.020178332 20:-0.0050709563 21:-0.00012243157 22:-0.0023806287 23:0.00099168682 24:0.0021554823 25:-0.00028059646 
1 1:-439.74598 2:-77.096568 3:1.6626449 4:2.3808821 5:-2.4094147 6:-1.0286381 7:0.45242222 8:-0.35859031 9:0.045154886 10:-0.14823762 11:0.13871825 12:-0.51668576 13:0.034468866 14:-0.21755645 15:0.039381592 16:0.0090591546 17:0.02742363 18:-0.0097167571 19:0.023490445 20:-0.019223202 21:0.028113288 22:-0.0083874655 23:0.0040758388 24:-0.00011598264 25:-0.0029555798 
0.46260125368126 1:-440.67009 2:-77.172239 3:1.2927546 4:2.0850897 5:0.21499351 6:4.1527225 7:0.26366244 8:-0.52079446 9:-0.21276763 10:-0.097297255 11:0.11901054 12:0.044734235 13:0.091923875 14:-0.11346395 15:-0.024394739 16:0.013179268 17:-0.0215316 18:0.021835925 19:-0.0066197587 20:0.018319402 21:0.015446901 22:0.00050126379 23:-0.0014661722 24:-0.014076856 25:3.9999817e-005 
0.6959055655136008 1:-104.52505 2:26.159111 3:16.436345 4:-18.892614 5:-2.9346861 6:-1.3968333 7:1.316983 8:1.2749634 9:-0.40874753 10:-0.1997864 11:-0.39556151 12:0.38987773 13:0.11791395 14:-0.18715957 15:0.014405417 16:0.0097605463 17:0.0060167546 18:0.0055802833 19:-0.004046051 20:-0.0033161066 21:0.0014592767 22:0.0056380913 23:0.00057034287 24:-0.0010450541 25:0.00026964852 
-1 1:-436.92241 2:-77.845567 3:1.5758245 4:2.5108573 5:-2.2435473 6:-0.50175516 7:0.92238255 8:0.026105805 9:0.84768684 10:-0.75911921 11:0.1600791 12:0.16240558 13:-0.27637463 14:0.20049833 15:-0.041259627 16:0.093195865 17:-0.0044997853 18:-0.022538709 19:-0.00094984287 20:-3.9028764e-005 21:0.0026810022 22:0.0019914785 23:-0.00292868 24:-0.0010078141 25:-0.0012220235 
-1 1:-429.5664 2:-78.262804 3:1.5728059 4:2.4974814 5:-2.2723727 6:-0.35884519 7:0.79803941 8:0.0087559497 9:0.67202464 10:0.31342588 11:-0.0093256509 12:-0.3774696 13:-0.3482173 14:-0.21966035 15:0.038924756 16:-0.016775211 17:0.010241601 18:-0.004981612 19:-0.039344375 20:0.012055844 21:-0.014392869 22:0.0067988027 23:0.0010377021 24:0.00022450485 25:0.0021583865 
-1 1:4548.2981 2:-358.75709 3:4.5638459 4:-0.031190724 5:1.6929673 6:0.31602544 7:0.033518069 8:0.047632196 9:0.038399426 10:-0.01956403 11:0.08470331 12:-0.06909915 13:0.019910566 14:-0.032108202 15:0.0069104786 16:0.015108356 17:0.0033237631 18:-0.0045688112 19:-0.00093353493 20:-0.0013642632 21:-0.0023706619 22:-0.00056803665 23:-0.0026674081 24:-3.7591367e-005 25:0.00015712616 
-1 1:-360.40758 2:-67.034933 3:0.95968423 4:2.515872 5:-2.3641778 6:-1.135563 7:-0.036623194 8:-0.7313151 9:0.087147157 10:0.29529836 11:0.38646145 12:0.1028752 13:0.18683592 14:-0.042805131 15:-0.054580147 16:0.04951111 17:-0.035393389 18:0.043038585 19:-0.012847355 20:-0.014130415 21:0.00057949502 22:-0.0072172539 23:-0.0038522907 24:0.0060694176 25:0.008937298 
-1 1:233.11057 2:-57.503564 3:-0.63023424 4:2.2666609 5:-2.801963 6:-1.6328346 7:-0.55170367 8:-0.055781446 9:-0.48024981 10:0.10305787 11:0.21904171 12:0.13615968 13:0.039383057 14:0.041877568 15:0.022829955 16:0.0076628585 17:-0.028592391 18:0.00044406351 19:-0.001470709 20:0.037677071 21:0.006544122 22:-0.0052281302 23:0.013470223 24:0.0059232154 25:-0.0062613694 
-1 1:545.28647 2:-61.454748 3:-1.2565425 4:2.011905 5:-6.4960909 6:0.25926294 7:-0.39385621 8:-0.59671508 9:-0.28907108 10:-0.068454544 11:-0.30270602 12:-0.050461265 13:-0.1673098 14:0.2473672 15:-0.059737495 16:-0.080436028 17:0.010202106 18:0.033515597 19:-0.0014228211 20:-0.010770644 21:0.012565325 22:0.010349285 23:0.0012073585 24:0.00027953778 25:-0.00016850244 
-1 1:-36.055763 2:-91.420082 3:1.4766409 4:2.3041656 5:0.37807336 6:-0.51412795 7:0.25595271 8:-0.11529138 9:0.54999187 10:0.47082258 11:-0.028727915 12:0.42243697 13:-0.14378273 14:0.099466972 15:0.082138174 16:-0.025008526 17:0.0027223081 18:-0.014216325 19:0.012999774 20:-0.013022979 21:-0.004486091 22:-0.0096056151 23:0.012256269 24:-0.0091053566 25:0.0055887641 
