svm_type c_svc
kernel_type rbf
gamma 0.0416667
nr_class 2
total_sv 19
rho -0.565301
label 3 6
nr_sv 13 6
SV
1 1:-1441.994 2:-54.676595 3:-31.540746 4:-1.5060498 5:-1.3928038 6:-0.69060405 7:0.42932392 8:0.7363655 9:-0.53112186 10:-0.62349706 11:0.36138475 12:-0.1795556 13:-0.065497304 14:0.018496708 15:-0.056035198 16:0.027605552 17:0.041710015 18:-0.008457068 19:0.035950069 20:-0.013070614 21:0.015461297 22:-0.01335116 23:-0.0006825759 24:-0.0017943249 
0.434569168271978 1:-1267.5117 2:28.459111 3:66.902136 4:10.633871 5:4.4346415 6:0.418867 7:-2.6596424 8:0.3695176 9:-0.45448605 10:-0.42010524 11:0.24947951 12:-0.057735399 13:-0.073075306 14:-0.12731377 15:0.06845668 16:-0.04426151 17:0.015802783 18:0.0048576177 19:0.0012878367 20:0.010230252 21:-0.0029026787 22:0.0091146824 23:0.0011402578 24:-0.00057961423 
0.4053388431779477 1:-1427.6067 2:-52.084852 3:-31.797618 4:-1.5798198 5:-0.67669181 6:1.0017647 7:1.4598937 8:1.3984685 9:-0.24563502 10:0.17477453 11:0.15852988 12:-0.1042892 13:-0.060808894 14:-0.029966475 15:-0.057940246 16:-0.0080566637 17:-0.029616484 18:-0.0039004363 19:-0.0084125359 20:0.036456482 21:-0.00093100063 22:0.0075094319 23:-0.014466434 24:-0.0057936837 
0.4346736775699814 1:-1140.7941 2:50.10254 3:62.251682 4:10.045846 5:1.7227379 6:0.18839763 7:3.9147765 8:-1.8109123 9:-0.27883378 10:-0.045306143 11:0.02221191 12:-0.02876686 13:-0.052180321 14:-0.057468101 15:0.037042821 16:-0.017470847 17:0.0077018302 18:0.0022334755 19:-0.00086599742 20:-0.0023315195 21:0.00011485122 22:-0.00063904712 23:0.0029483342 24:0.00019452093 
0.4350264994572389 1:3586.0515 2:911.62417 3:-6.3401563 4:1.4538784 5:-2.9193325 6:1.0467019 7:0.045264166 8:0.15655327 9:-0.18852855 10:-0.43995887 11:-0.010972979 12:0.0013701672 13:-0.13721399 14:0.095117436 15:0.087434043 16:0.037177722 17:-0.042851838 18:-0.023289916 19:-0.0030058487 20:-0.0022216369 21:0.005400965 22:0.0091264876 23:-0.0015982225 24:0.0038163566 
0.4169116224678605 1:-1441.8498 2:-55.439666 3:-31.924102 4:-1.6140541 5:5.3218507 6:0.66497309 7:-0.19415516 8:-0.64138076 9:0.15252054 10:-0.24419982 11:-0.10340488 12:0.17462803 13:0.027690375 14:0.016660175 15:-0.039633489 16:0.11948509 17:0.0073678158 18:0.0017778997 19:0.0067432234 20:0.0073204198 21:-0.018008379 22:0.011020227 23:0.0032539379 24:-0.0016727453 
0.404231319662736 1:-1423.1415 2:-57.944473 3:-32.700687 4:-1.7239637 5:-0.060863603 6:-0.8943214 7:0.15282121 8:0.94972794 9:-0.55263752 10:-0.27826824 11:-0.86667783 12:-0.070044612 13:-0.051271675 14:-0.16564386 15:-0.031969301 16:-0.0049795907 17:-0.027043073 18:-0.0045074972 19:-0.011392569 20:-0.00420007 21:-0.001864047 22:-0.0070122831 23:0.0065310602 24:0.0083347055 
0.2952944586602944 1:-1443.9059 2:-55.803848 3:-32.830125 4:-1.7288762 5:0.90696999 6:-0.91027968 7:-0.43887047 8:-0.37248765 9:-0.21328675 10:0.61900376 11:0.012456141 12:-0.17114114 13:-0.08943255 14:0.069120578 15:0.015487508 16:-0.0042027062 17:-0.065181172 18:0.045161314 19:0.024677746 20:-0.012249383 21:0.0073815041 22:0.017419556 23:0.0011707516 24:0.0021813244 
0.434640355432856 1:1735.9641 2:-415.64764 3:-50.81643 4:-0.71157948 5:-1.7300926 6:0.1702693 7:-0.81395817 8:-1.223682 9:-0.66451096 10:0.078100331 11:-0.22267918 12:-0.29213603 13:0.041869399 14:0.16741047 15:0.066451505 16:-0.0011935263 17:0.025432168 18:0.003931894 19:-0.0027202393 20:0.021492347 21:-0.013072341 22:-0.015064536 23:0.0036165257 24:-0.0024578141 
0.434640355432856 1:-939.07119 2:-107.43084 3:-30.3838 4:-2.014269 5:-0.418477 6:-0.37084416 7:0.19183202 8:0.15238568 9:1.0794129 10:-0.022712892 11:0.22003912 12:-0.073647467 13:-0.08140287 14:-0.018111162 15:0.056452461 16:0.011344038 17:0.039520972 18:0.020006055 19:-0.0091133522 20:0.0028272058 21:-0.0056508573 22:-0.0061218341 23:-0.010360044 24:0.018374056 
0.4350522657971366 1:1096.6173 2:-283.89193 3:2.8765066 4:-9.4039934 5:2.3335363 6:0.8074435 7:0.21606374 8:0.10404166 9:0.96375833 10:-0.24886032 11:0.08339409 12:-0.28950257 13:-0.17898262 14:0.014241151 15:-0.023608521 16:-0.033881194 17:-0.011828344 18:-0.016303728 19:-0.016117762 20:-0.020437129 21:-0.01309923 22:0.0042547322 23:0.0057613909 24:-0.008848978 
0.4345691682719779 1:-491.4709 2:89.577532 3:194.58105 4:-20.007564 5:-0.64555603 6:-0.17726646 7:-0.1163524 8:-0.060280384 9:-0.25268634 10:0.059083198 11:-0.068624095 12:0.036888714 13:0.057439053 14:0.025569932 15:0.0072458239 16:0.0077739601 17:0.0043861365 18:0.0041859062 19:0.004769411 20:0.0072013418 21:0.0022622311 22:-0.0023698631 23:-0.0010425286 24:0.0019217198 
0.4350522657971366 1:6133.5734 2:-855.52474 3:-19.292769 4:-3.2646848 5:-1.5311014 6:0.12611017 7:0.13214266 8:-0.25396367 9:-0.29689012 10:0.046241115 11:0.21998141 12:0.2211984 13:-0.034566746 14:-0.2012747 15:0.0094841404 16:0.010536088 17:-0.010149915 18:0.0054162641 19:0.0071048173 20:-0.0011005656 21:0.0038482508 22:0.0033780597 23:-0.00062720921 24:0.0006184589 
-1 1:-1439.5193 2:-54.764924 3:-32.635516 4:-1.6361806 5:-1.9129939 6:-0.2838143 7:-0.21878192 8:-0.90628953 9:0.10909141 10:-0.88005202 11:0.24493536 12:0.16652539 13:0.2735981 14:0.057253576 15:-0.038236337 16:-0.046583456 17:-0.059964432 18:0.018398412 19:-0.009103346 20:-0.0013949851 21:-0.00493894 22:-0.0033353806 23:-0.0019546713 24:0.00083398666 
-1 1:-1443.9461 2:-55.722567 3:-32.857591 4:-1.7363945 5:0.059342585 6:4.5909685 7:0.39048781 8:1.140532 9:-0.3078475 10:0.36880532 11:0.037449755 12:0.16973509 13:0.11986857 14:0.051637661 15:0.030449452 16:-0.029655195 17:0.017686577 18:0.00089449665 19:0.0061528346 20:-0.01373255 21:-0.0032652765 22:-0.0035296266 23:0.007038316 24:0.0037164175 
-1 1:3467.0578 2:870.82535 3:-42.143503 4:-2.9689888 5:5.4937204 6:-1.1380885 7:0.41070319 8:0.59436713 9:0.21661303 10:0.20716753 11:0.026451142 12:0.084782994 13:0.055502579 14:-0.033274062 15:-0.010897842 16:-0.02633052 17:0.0089655485 18:0.029051008 19:0.00477325 20:0.0062218586 21:-0.00099155706 22:-0.020474125 23:0.0026049865 24:-0.0048174567 
-1 1:-1366.2677 2:-34.1119 3:-19.340101 4:-0.024454447 5:-1.9884004 6:-1.3418524 7:0.033279444 8:0.2129928 9:0.61492185 10:0.21295814 11:0.27839207 12:0.083977818 13:-0.0011342898 14:0.012516753 15:0.0010769677 16:-0.0036975694 17:-0.00226567 18:-0.022796541 19:-0.0026396547 20:0.023582694 21:0.016126288 22:0.0046850367 23:0.024066973 24:0.0022937207 
-1 1:-787.95315 2:94.401916 3:17.715254 4:4.5440394 5:-2.3272779 6:-2.0361742 7:-0.22973119 8:0.31002456 9:-0.15307322 10:0.46169156 11:0.16668131 12:0.16789534 13:-0.047010255 14:0.014610988 15:-0.0075900263 16:-0.018936084 17:-0.01549557 18:-0.036461372 19:0.016851538 20:-0.0087255996 21:-0.038027139 22:-0.0056894546 23:-0.0030857962 24:0.00071607409 
-1 1:-482.55171 2:158.17199 3:29.206346 4:5.9405067 5:-6.1585262 6:-0.7562748 7:0.11226053 8:1.0168444 9:0.035795603 10:0.064298964 11:0.021720999 12:-0.039691298 13:0.091966622 14:-0.054995639 15:0.024981463 16:0.045003067 17:0.034903281 18:0.041083338 19:-0.0231991 20:-0.012268022 21:-0.0073832903 22:0.0068150823 23:0.0035624747 24:-0.0099152252 
