svm_type c_svc
kernel_type rbf
gamma 0.047619
nr_class 2
total_sv 16
rho -0.711721
label 4 5
nr_sv 12 4
SV
0.2883784755828686 1:1181.7247 2:314.07223 3:-9.2786952 4:4.0620773 5:0.5255873 6:-0.88287439 7:0.51617133 8:-0.40323748 9:0.23760721 10:-0.011729965 11:0.12119873 12:-0.024831159 13:-0.034185478 14:0.018843017 15:0.011506666 16:-0.0036652825 17:0.0016777583 18:-0.0021521116 19:-0.0016688207 20:-9.8819341e-005 21:0.00039843868 
0.3929259369926011 1:-296.78173 2:17.05257 3:1.5469642 4:2.0613825 5:-2.1004562 6:0.39994992 7:1.6513061 8:-0.37377023 9:-0.82742246 10:0.042311252 11:-0.066814932 12:-0.13424154 13:0.2066129 14:0.091436346 15:-0.049269421 16:-0.011777188 17:0.01271551 18:0.0015558486 19:-0.025566732 20:-0.0037677367 21:-0.0053301905 
0.2880664390799657 1:-110.27441 2:-37.085226 3:-1.3352979 4:3.7672493 5:1.618374 6:-3.1870867 7:0.28887668 8:-0.57573902 9:-0.60991323 10:0.33098188 11:-0.0038974155 12:-0.24630228 13:-0.044776958 14:0.052125451 15:-0.040250239 16:-0.002154612 17:0.011657158 18:0.035019957 19:0.016225248 20:-0.0037994085 21:0.0088080216 
0.2880052332064971 1:-107.80977 2:85.782398 3:10.141869 4:-5.044639 5:-0.82052989 6:-2.6296185 7:-0.90198516 8:0.29031034 9:-0.5771273 10:0.0044571321 11:0.17855881 12:0.19195948 13:0.20266494 14:-0.097334724 15:-0.043036366 16:0.083398157 17:-0.0098818684 18:0.0009251557 19:0.0021251175 20:0.0052114275 21:-0.0011969333 
0.242857990216621 1:-290.89542 2:18.464599 3:2.0377521 4:2.1281009 5:2.5115503 6:0.16185706 7:-0.33402172 8:-0.52402789 9:0.36638529 10:0.45353285 11:-0.10386835 12:0.28835682 13:-0.11328292 14:-0.011107115 15:0.020132197 16:-0.0056884349 17:0.0048777584 18:0.019868835 19:0.0016074555 20:-9.2148633e-005 21:-0.019317447 
0.2884948289003511 1:1320.7274 2:-111.29624 3:16.48599 4:-4.4817528 5:0.87580999 6:4.0489985 7:0.15938181 8:0.62977616 9:-0.49003747 10:-0.044550308 11:-0.10023362 12:0.028474911 13:-0.023891345 14:-0.0035747909 15:-0.00051854411 16:0.0079632967 17:0.0035742975 18:0.01027536 19:0.0019095661 20:-0.0052519503 21:0.00021750547 
0.2886333193192026 1:162.5432 2:-45.657189 3:2.6235335 4:1.9801433 5:-2.3369109 6:-0.1616564 7:-0.92422489 8:-0.92053324 9:-0.13044046 10:0.0048503919 11:0.44438606 12:-0.23542505 13:0.20660554 14:-0.010454657 15:0.014247931 16:-0.076020604 17:-0.032348848 18:-0.0076785713 19:0.013795944 20:0.0010111417 21:-0.0056950535 
0.7740236548715438 1:-297.6738 2:17.309219 3:1.562414 4:2.3127318 5:3.8319024 6:-0.51253457 7:-0.20535704 8:0.22699206 9:0.32951297 10:-0.94414716 11:-0.24539239 12:-0.071255052 13:0.17866872 14:-0.030994371 15:0.047068151 16:-0.02142485 17:0.017473777 18:0.016580064 19:0.00060607793 20:0.0012573549 21:-0.0005518405 
0.2837068722792492 1:-296.59311 2:17.07168 3:1.3278077 4:2.2003052 5:-3.2225788 6:1.1947675 7:-0.95499958 8:-0.66289703 9:0.30930786 10:-0.4384525 11:0.31055322 12:-0.23153034 13:-0.28507391 14:-0.064898278 15:-0.089955801 16:0.0063218004 17:0.018522036 18:-0.0013811009 19:-0.00035343799 20:-0.007764567 21:-0.0026634594 
0.2880052332064971 1:-0.92868152 2:-38.180336 3:-6.8076385 4:-28.370233 5:-1.0510725 6:-1.6337451 7:0.69276806 8:-0.41617956 9:0.25453515 10:-0.092224566 11:0.24863063 12:0.11015884 13:-0.065666662 14:0.02487324 15:0.033536563 16:-0.015252621 17:0.0039525953 18:0.0068832728 19:-0.0039790313 20:-0.00058156819 21:0.0009214341 
0.2888355772646372 1:-201.79708 2:-3.2456149 3:-0.66346248 4:-7.2543996 5:6.1031074 6:1.4257635 7:0.10383632 8:-0.77034547 9:0.39293919 10:0.21435754 11:-0.15937348 12:-0.46319044 13:0.036837128 14:0.01815536 15:-0.043870398 16:0.028490149 17:-0.0036465203 18:-0.030899216 19:0.0035145485 20:0.0013603973 21:-0.000825238 
0.2880664390799657 1:47.19963 2:-50.784196 3:-28.524702 4:-0.85306956 5:-1.011076 6:2.9299708 7:-1.1850965 8:1.0129826 9:-0.60211001 10:0.035511169 11:-0.29971746 12:0.071240714 13:0.084441569 14:-0.046500351 15:-0.027836768 16:0.0087666393 17:-0.0043363317 18:0.0055635368 19:0.0041425129 20:0.00026168152 21:-0.00095888236 
-1 1:-204.82441 2:30.596456 3:4.9963997 4:0.61919482 5:-1.2764172 6:2.9368652 7:0.016082116 8:-0.68883793 9:0.75728986 10:0.30509474 11:-0.043890624 12:0.10519707 13:0.036651724 14:-0.040582415 15:-0.030734772 16:-0.033700519 17:0.011348139 18:0.011646413 19:-0.0056012587 20:0.020360732 21:0.009312325 
-1 1:-298.71273 2:17.694614 3:1.663178 4:2.1926957 5:1.0013028 6:0.084808338 7:-0.33410525 8:-0.12091647 9:0.54614125 10:0.35136301 11:-0.046095817 12:0.16670367 13:0.080388689 14:-0.095561589 15:0.029916292 16:-0.019977914 17:-0.012752603 18:-0.0019909778 19:-0.011274666 20:-0.02133886 21:0.009043295 
-1 1:570.32848 2:-233.14739 3:-8.7439447 4:10.979277 5:1.1379488 6:-2.4049006 7:1.1007626 8:-0.62262321 9:0.39142357 10:-0.01047578 11:0.4270152 12:0.08897883 13:-0.0026095848 14:-0.037047419 15:0.020388439 16:0.030532061 17:0.011393257 18:-0.0098135292 19:-0.0095498345 20:0.0051954233 21:-3.8921079e-005 
-1 1:421.5376 2:-58.311432 3:4.2880008 4:-0.34391117 5:-2.6635178 6:-4.3167391 7:-1.5789691 8:0.98034804 9:0.50179179 10:0.054510262 11:-0.78149038 12:-0.07544817 13:-0.064002008 14:0.017251258 15:-0.025733598 16:-0.025288568 17:-0.0010102658 18:-0.013213314 19:-0.0042986574 20:0.0024354271 21:-0.0011959584 
