svm_type c_svc
kernel_type rbf
gamma 0.0333333
nr_class 2
total_sv 23
rho -0.0641644
label 1 4
nr_sv 11 12
SV
1 1:-321.86666 2:-58.971924 3:-4.0107552 4:3.496179 5:-5.323078 6:1.7698799 7:-1.2274894 8:-0.32215712 9:-0.46031882 10:-0.35761281 11:0.033269979 12:-0.19403604 13:0.098269943 14:0.0047040051 15:-0.10081635 16:0.0066694209 17:-0.010511883 18:-0.016530053 19:-0.015756192 20:0.016718865 21:0.014172554 22:0.02519262 23:-0.00091221018 24:-0.0023320994 25:0.0079370925 26:-0.0056494944 27:-0.0061026304 28:0.0015021197 29:0.0029978299 30:-2.3058723e-005 
1 1:-326.21889 2:-56.828478 3:-4.7758555 4:3.990434 5:0.45364101 6:0.66679862 7:-0.97002136 8:0.20074117 9:0.037499021 10:0.4203541 11:0.045658657 12:0.28432117 13:-0.052980906 14:0.10314132 15:0.032915412 16:0.050591511 17:0.0064318417 18:0.00022837721 19:-0.029037716 20:-0.022856291 21:0.017834799 22:0.011489542 23:0.0015539391 24:-0.010201341 25:-0.013644854 26:-0.0071061696 27:0.0047364708 28:0.001690447 29:-0.0011475977 30:-0.0001228595 
0.9359670510025727 1:144.88855 2:80.970747 3:14.407972 4:-22.490785 5:1.2127044 6:3.3723348 7:-0.35906508 8:-0.63818405 9:1.2686675 10:0.21770318 11:0.2148252 12:0.073106773 13:-0.11901171 14:-0.038729759 15:-0.13990401 16:0.022650723 17:-0.015997827 18:-0.035738449 19:0.00026228519 20:0.016627875 21:-0.012049541 22:-0.00080891215 23:-0.0020384592 24:0.0031913321 25:-0.0067246503 26:-0.0010190707 27:0.0013784799 28:0.0015821863 29:-0.0010139079 30:0.00096591002 
0.9377660270408792 1:-261.05097 2:-43.266453 3:-3.7092267 4:1.1220637 5:1.974821 6:0.2478712 7:0.69262651 8:-0.98079243 9:-0.64222109 10:-0.25346619 11:0.36985964 12:-0.23766318 13:-0.023559381 14:-0.039195391 15:-0.049377364 16:-0.014489558 17:0.010982117 18:-0.0025308425 19:-0.0051705029 20:-0.0067471696 21:-0.0038582631 22:6.0117518e-005 23:0.006897765 24:0.0052405759 25:-0.0088116818 26:-0.0034594878 27:-0.0059036991 28:-0.0033154463 29:-0.0062598998 30:-0.0040891316 
0.9357099693603973 1:-174.89136 2:39.722202 3:-12.347719 4:3.1273379 5:1.8090488 6:-0.29505015 7:-0.25136409 8:-0.41278647 9:-0.14855868 10:0.78362447 11:0.035173569 12:0.20403836 13:0.18266294 14:-0.16511724 15:-0.056175118 16:0.037733241 17:-0.0051360032 18:-0.016817434 19:0.0098181535 20:0.006383764 21:0.022281713 22:-0.011692725 23:0.016830976 24:-0.0023974294 25:0.0095456947 26:0.0054139014 27:0.00064467361 28:-0.0020426378 29:0.00064966028 30:-0.0011214764 
0.936329841047436 1:-246.50368 2:-25.166146 3:0.38232888 4:-0.70415585 5:-0.36324243 6:1.5276786 7:0.7508774 8:-0.49716624 9:-0.82974064 10:-0.43277933 11:0.34714655 12:0.29040067 13:-0.17801801 14:-0.036667683 15:-0.025340461 16:-0.014569772 17:0.030926857 18:0.008766345 19:0.0090475478 20:-0.00026909959 21:-0.0059494957 22:0.0067570633 23:0.0080945429 24:-0.015597483 25:0.0029418998 26:0.0058185373 27:0.001487441 28:-0.0041869393 29:-0.0021676924 30:0.0035989888 
0.9362364862794352 1:3117.4433 2:-478.90459 3:-22.382507 4:2.3822453 5:-0.10667449 6:0.093595589 7:-0.28970683 8:-0.0070395408 9:0.12684535 10:-0.013572867 11:0.0048514473 12:-0.012509279 13:-0.015980467 14:0.0090719874 15:-0.0073047222 16:-0.0019216035 17:0.0005102647 18:-0.0016663341 19:0.0028958669 20:-0.00059163474 21:0.0012558826 22:0.00040595637 23:-2.5982979e-005 24:-0.00082471784 25:-0.0002499796 26:0.0008046428 27:-5.0871168e-006 28:-0.00049370938 29:-5.0024087e-005 30:-9.3157426e-005 
0.9354275472129968 1:12.196942 2:-68.540608 3:12.215271 4:-14.43047 5:1.511155 6:-1.7035043 7:-0.40563745 8:1.0230993 9:-0.64073871 10:-0.9473452 11:-0.22926721 12:0.27332922 13:0.065655446 14:-0.054320702 15:0.0451389 16:0.074595384 17:-0.0046879403 18:0.009459109 19:-0.018309189 20:0.0079381891 21:0.003328869 22:-0.019019856 23:0.0068302283 24:0.0049508982 25:6.7587109e-005 26:-0.0046468585 27:-0.00048383694 28:0.00091211991 29:6.230122e-005 30:0.00066501213 
0.9360514954460302 1:202.19342 2:8.6412312 3:1.8836415 4:-15.086899 5:-0.71961352 6:3.0918517 7:3.0345212 8:-0.26542891 9:-0.90159088 10:0.56783398 11:-0.090139678 12:-0.049684171 13:0.129609 14:-0.00094447077 15:0.089470591 16:-0.031538641 17:0.0070504041 18:0.039028134 19:-0.024953983 20:0.00419218 21:-0.0073458851 22:0.0050839289 23:0.0064319738 24:0.005639775 25:0.0012601049 26:-0.0028515388 27:0.0015761266 28:0.00075560803 29:0.0030958675 30:-0.00011835286 
0.9356354508787376 1:-65.168937 2:36.775208 3:-13.149078 4:-1.6126882 5:3.1226242 6:-1.4091231 7:-0.26937309 8:-0.53985577 9:-0.15071673 10:0.27184124 11:0.30164881 12:-0.32206742 13:0.13822952 14:0.0201718 15:0.064543627 16:-0.011596087 17:0.013769965 18:-0.014629689 19:0.012543023 20:-0.016363414 21:0.0036333256 22:-0.0069054967 23:0.0010953049 24:0.0035720587 25:-0.0020140656 26:-0.0030951241 27:-0.0084977762 28:0.0050731023 29:0.00023696281 30:0.0041695789 
0.9362364862794352 1:-211.44424 2:-50.667966 3:-3.0923628 4:0.10714998 5:-0.67582899 6:0.76940518 7:-0.17564154 8:0.11155049 9:-0.53083422 10:0.0083415069 11:0.12394764 12:0.38554754 13:0.036744975 14:0.015427462 15:0.11334868 16:-0.012198328 17:0.016087461 18:-0.017211046 19:0.014464879 20:0.013765972 21:-0.0088973601 22:-0.005269659 23:-0.010352774 24:-0.009203554 25:0.0037563246 26:0.0046599717 27:-0.00026622681 28:0.0094924076 29:-0.0024051102 30:-0.0026793399 
-1 1:948.42635 2:747.51167 3:-61.705825 4:-4.8337535 5:-0.68086924 6:-0.0093160399 7:-0.40539281 8:-0.10445712 9:-0.013746609 10:-0.26720115 11:-0.09437377 12:-0.058826658 13:-0.093335402 14:0.088560092 15:0.028443244 16:0.0047371827 17:-0.00026534369 18:0.0012489668 19:0.0022280916 20:-0.0012648343 21:0.0030053934 22:-0.00017896492 23:0.0017049733 24:-0.0008108859 25:0.00033819489 26:0.0018852963 27:0.00048422016 28:-0.00067149492 29:0.00059891431 30:-0.00081809576 
-0.7019094498214304 1:-325.43405 2:-57.392377 3:-3.9915948 4:3.7285202 5:-4.7031303 6:1.0492336 7:0.40398468 8:0.61189749 9:0.10406083 10:-0.45356768 11:0.13825208 12:-0.30701171 13:0.10724605 14:-0.081405319 15:0.0097299525 16:-0.018386974 17:0.011595044 18:-0.025530069 19:0.024819671 20:-0.017911157 21:0.004682169 22:0.00078342135 23:0.010546712 24:0.011754458 25:-0.004190235 26:0.0016368558 27:0.0094993808 28:0.0028943728 29:0.00030117031 30:9.9490821e-005 
-0.6681833667683598 1:-326.40132 2:-56.760873 3:-4.6373984 4:3.9559852 5:0.6634573 6:0.4006576 7:-0.035800935 8:3.6231836 9:-0.40096787 10:0.37397108 11:0.3536699 12:-0.29092082 13:-0.27465864 14:0.11069702 15:-0.10184367 16:0.021505132 17:0.012878431 18:0.012850687 19:0.00032876594 20:0.0050311678 21:-0.0031221229 22:-0.0064818409 23:-0.00040831304 24:0.0045033879 25:0.0047039558 26:0.002129564 27:-0.0008946413 28:0.00018180209 29:0.00069532751 30:-0.00026371668 
-1 1:-134.57549 2:-35.178883 3:22.471785 4:1.5115498 5:1.5035302 6:-3.715746 7:-0.60395584 8:-1.2109931 9:0.52519111 10:-0.17564892 11:0.29160808 12:-0.20109952 13:-0.092679425 14:0.036935616 15:0.0069984468 16:0.0030006389 17:0.0094662184 18:0.02137133 19:-0.013084112 20:0.01008642 21:-0.0048162213 22:0.0073403736 23:0.011604604 24:-0.0019451821 25:-0.0077900646 26:0.010674635 27:0.00036455171 28:0.0022804819 29:0.0067348112 30:-0.0012209568 
-1 1:-171.77344 2:69.73832 3:-30.489617 4:11.891517 5:-1.5992061 6:-1.8046644 7:-0.74752872 8:0.50265553 9:0.29790073 10:0.12995061 11:0.069121135 12:0.26814069 13:0.1989831 14:-0.16760786 15:-0.10969271 16:-0.032121648 17:0.006608243 18:0.052249208 19:-0.0018067908 20:0.0177562 21:-0.0078746198 22:-0.0029127566 23:-0.0092350314 24:0.0017812556 25:-0.010544669 26:-0.0039447349 27:0.0010301341 28:0.00067927258 29:-0.0010009904 30:0.0011171581 
-0.9157384126898157 1:-320.61223 2:-53.955395 3:-4.8464998 4:4.2440723 5:1.8940651 6:0.7668513 7:-0.1797815 8:-0.72350939 9:-0.23784986 10:-0.086294669 11:0.31451973 12:0.28690616 13:-0.080201755 14:-0.0007937831 15:0.055696062 16:-0.0059225222 17:0.022400122 18:-0.02187325 19:0.019489156 20:-0.0010187198 21:-0.00017030783 22:-0.010014473 23:-0.017019424 24:0.0038534859 25:0.0002759697 26:-0.0088271604 27:0.0015031323 28:-0.0052227963 29:0.0076959933 30:-0.00098278256 
-0.3119218258334057 1:-326.02169 2:-56.75144 3:-4.6795428 4:4.0398955 5:2.30428 6:0.069172821 7:-0.53345816 8:0.12960629 9:1.3809887 10:-0.053950028 11:-0.11772314 12:-0.076880852 13:-0.30318189 14:-0.086655634 15:0.15189225 16:-0.029087711 17:-0.0069964207 18:0.023217766 19:0.011208378 20:0.0090677997 21:0.0017979813 22:0.0099317529 23:0.012472932 24:-0.00021880801 25:0.010186218 26:-0.010453463 27:0.00042855405 28:0.00093146763 29:-0.0018470731 30:-0.00023366507 
-1 1:122.24116 2:56.897932 3:31.345968 4:5.105779 5:-2.5366319 6:-1.22501 7:-1.3343405 8:-0.80470802 9:-0.27488573 10:0.26433173 11:0.095131707 12:-0.34562281 13:0.11861163 14:0.18101524 15:0.099236919 16:-0.0095268744 17:0.0017706864 18:-0.0096612779 19:-0.0047287979 20:0.030589652 21:0.0028408811 22:-0.013189029 23:-0.00026219088 24:0.0014136195 25:8.4365318e-006 26:-0.0022907763 27:0.0046164699 28:-0.0037855205 29:-0.0040792752 30:0.0010937167 
-1 1:-272.71012 2:-38.528803 3:-2.3482776 4:4.552344 5:-0.98497337 6:1.0661302 7:-2.0897184 8:-0.80996114 9:0.4452657 10:0.099213919 11:-0.03481594 12:0.36815242 13:0.028472705 14:0.030501167 15:0.042744333 16:0.030535961 17:0.023110675 18:0.011725333 19:-0.022942575 20:-0.017387347 21:-0.013507023 22:0.0083909656 23:-0.0052832725 24:0.017709342 25:0.010291277 26:0.0083446824 27:-0.0012261953 28:-0.0015629341 29:-0.0021351578 30:0.0004202629 
-0.8276072994349084 1:-326.57168 2:-57.364323 3:-4.3982818 4:3.8411893 5:3.2997718 6:0.066123423 7:-0.075682829 8:-0.12988478 9:-0.12421288 10:0.021902653 11:-1.0440288 12:-0.24331853 13:-0.014056742 14:0.018126449 15:-0.094505936 16:-0.017423881 17:0.066693371 18:-0.025547989 19:-0.002152252 20:0.0050610061 21:-0.0065278438 22:0.001087263 23:0.00064370841 24:-0.0021052168 25:-0.0019241121 26:-4.1749891e-005 27:0.00074937799 28:0.00018736321 29:0.00036460869 30:6.676037e-005 
-1 1:-325.48254 2:-57.183268 3:-4.1932091 4:3.5980902 5:-3.8731385 6:1.4262144 7:-0.9551914 8:-0.18518346 9:-0.34656426 10:0.18419076 11:-0.32772095 12:-0.35139079 13:-0.28010655 14:-0.17199394 15:0.094302612 16:-0.0046156011 17:-0.041114515 18:-0.0079815272 19:-0.019382884 20:-0.0089889723 21:-0.0052541318 22:-0.019133501 23:-0.0064603349 24:-0.0054479162 25:-0.0062225073 26:0.0052353914 27:-0.0028379562 28:-0.00124842 29:0.001111916 30:0.00032541302 
-1 1:-27.818383 2:-5.6076192 3:-2.5415333 4:-8.3860367 5:-2.8864656 6:-6.8592748 7:1.5695379 8:-0.38466014 9:-0.50414897 10:0.3451932 11:-0.052007426 12:0.12540811 13:-0.17172956 14:-0.032104285 15:-0.056097412 16:0.0031499391 17:-0.017989774 18:-0.029038178 19:-0.0032608286 20:-0.0088772088 21:-0.012207104 22:0.011256354 23:-0.0046844915 24:0.0012680844 25:0.006548301 26:-0.0044428161 27:0.0023486304 28:7.6310569e-005 29:-0.0011842107 30:0.00011288919 
