svm_type c_svc
kernel_type rbf
gamma 0.0769231
nr_class 2
total_sv 10
rho 0.726699
label 5 2
nr_sv 2 8
SV
1 1:-220.55969 2:17.468947 3:2.7426712 4:-0.70969143 5:-0.081295633 6:-0.6088647 7:0.74702218 8:0.65074129 9:-0.13284044 10:-0.011828438 11:0.11449215 12:-0.046450609 13:-0.0081222109 
1 1:412.07733 2:22.089165 3:-3.6296206 4:-1.2150074 5:-0.71420489 6:1.2171525 7:0.7987934 8:0.11702244 9:0.19048078 10:0.00018276607 11:-0.14010301 12:-0.033470354 13:-0.0056738757 
-0.1802849933298752 1:-310.49158 2:-9.6855423 3:-0.068737696 4:-0.30624042 5:0.80787392 6:-0.5956767 7:-0.31788464 8:-0.17358709 9:-0.15022013 10:0.24100271 11:-0.15341911 12:-0.050806501 13:-0.013553391 
-0.1796458520662673 1:-311.70375 2:-9.5914096 3:0.23521469 4:1.6794066 5:-0.23755559 6:0.64797433 7:-0.38982176 8:0.1489387 9:0.28920269 10:0.018159135 11:0.0383312 12:0.057686972 13:-0.031645118 
-0.2739866804952924 1:268.35715 2:50.269444 3:-5.9537521 4:1.0604694 5:0.026572872 6:-1.6142518 7:-0.2369837 8:0.059302221 9:0.015391769 10:0.031465162 11:0.09787086 12:0.0089463156 13:0.0047643112 
-0.2730514552340547 1:-210.27085 2:-19.233333 3:1.1205022 4:-2.1537488 5:-0.60144999 6:-1.289163 7:0.68353088 8:-0.37622488 9:0.11401079 10:-0.026623885 11:-0.0058603034 12:0.076502749 13:-0.0015287477 
-0.2733285333937918 1:590.07811 2:87.58322 3:4.9692084 4:0.3232943 5:-0.98732552 6:0.19503646 7:-0.43832116 8:-0.18600712 9:-0.067512701 10:0.066291458 11:0.0082913188 12:0.0093477668 13:0.0010797549 
-0.2733224968530532 1:-83.498399 2:23.354831 3:0.448684 4:0.0703487 5:0.66066036 6:-0.47755598 7:-0.61830588 8:0.096683506 9:-0.10419941 10:-0.28386393 11:-0.17916871 12:0.00010897043 13:-0.0030933972 
-0.2730514552338738 1:-291.64137 2:-9.840807 3:0.66602752 4:-1.4079381 5:0.0078235316 6:0.23156098 7:-0.98379476 8:0.11621931 9:0.36499855 10:0.023541771 11:0.049760086 12:-0.038596334 13:0.025244019 
-0.2733285333937918 1:466.35909 2:-16.626896 3:1.3717375 4:0.16180686 5:2.7265131 6:0.41461241 7:0.46629638 8:-0.091939161 9:0.094843106 10:0.0032932834 11:0.062022244 12:0.018768256 13:0.0035518343 
