svm_type c_svc
kernel_type rbf
gamma 0.0384615
nr_class 2
total_sv 20
rho -0.564693
label 3 2
nr_sv 13 7
SV
0.4355888409632854 1:-1027.8962 2:-11.891782 3:3.8501431 4:2.0889287 5:-0.69859477 6:-1.3954278 7:-1.1493206 8:2.1182438 9:-0.60374423 10:0.33582327 11:-0.017238519 12:0.13726755 13:-0.021602773 14:0.10983292 15:0.0080251 16:-0.0045068124 17:0.04362845 18:0.0035477612 19:0.014423927 20:-0.010406889 21:0.025461456 22:-0.0068195729 23:0.022626293 24:-0.010351712 25:-0.003703172 26:-0.0016108972 
0.9377916057137381 1:-1154.7351 2:-84.237552 3:-60.336689 4:0.41071048 5:-2.3226613 6:-0.42960696 7:0.70112286 8:-0.33692262 9:0.12138166 10:-0.72241013 11:-0.20676357 12:0.08160262 13:-0.068453107 14:-0.037457402 15:0.11838819 16:-0.11287308 17:0.083810946 18:-0.014470214 19:0.0090520664 20:0.037098804 21:0.0070259893 22:0.0051377081 23:-0.004796266 24:-0.0053587145 25:0.0029851155 26:-0.001672819 
0.5115757187685172 1:-1140.4519 2:-81.159217 3:-60.869732 4:0.39927893 5:-1.7784603 6:0.19172525 7:2.1556171 8:0.74341376 9:0.65932742 10:0.30773387 11:-0.12051515 12:0.55507487 13:0.010760306 14:-0.22960038 15:-0.091813603 16:0.047778705 17:-0.0026015692 18:-0.0020866093 19:-0.0019411035 20:-0.00073602127 21:0.012318632 22:-0.0073291706 23:-0.0075644034 24:0.0051939316 25:-0.0077790178 26:-0.00098486662 
0.4357987897296426 1:-857.9119 2:41.000033 3:22.327079 4:2.6660054 5:0.90406896 6:4.1968416 7:0.51633878 8:0.66897082 9:0.1304889 10:-0.97697457 11:0.16045034 12:0.22227265 13:-0.19825043 14:0.2854655 15:-0.092867135 16:0.047954368 17:-0.010847246 18:0.010163797 19:-0.00095099763 20:-0.01104123 21:0.00020409535 22:0.0051649487 23:3.4205792e-005 24:-0.00020052232 25:0.0017531809 26:0.00036509882 
0.4357987897296428 1:1869.0218 2:613.22712 3:-106.36253 4:0.23604241 5:-0.31772308 6:-0.081132406 7:-1.1492343 8:0.67679075 9:-0.30716142 10:0.19221265 11:-0.0013448848 12:0.056653808 13:0.044231369 14:-0.046236047 15:-0.18541107 16:-0.0076038663 17:0.050066338 18:0.0078807654 19:0.027057568 20:0.020824045 21:-0.028264731 22:0.002132451 23:-0.008281666 24:-0.0014189102 25:0.0048833287 26:-0.001234325 
0.6746619413459145 1:-1154.5631 2:-85.050245 3:-60.687795 4:0.14546154 5:4.2896961 6:1.2972019 7:0.10860804 8:1.0986586 9:0.1886928 10:0.082691124 11:-0.15150395 12:-0.056749415 13:0.42180496 14:0.037809694 15:0.055535458 16:0.008840502 17:0.034592943 18:-0.053634698 19:-0.014609768 20:-0.0017674512 21:-0.0077107619 22:0.017491127 23:0.00032690449 24:0.0092214698 25:-0.0029637229 26:0.0017410224 
0.3926571117410587 1:-1135.7718 2:-86.918458 3:-61.175221 4:0.28505242 5:-1.0657202 6:-0.19923829 7:0.55178545 8:-0.74505619 9:0.47782261 10:0.20739092 11:-0.72911044 12:-0.48638648 13:0.14687802 14:0.2317066 15:-0.10681442 16:-0.046926327 17:-0.0063384544 18:0.013157023 19:0.01201033 20:-0.023593539 21:0.011268327 22:-0.010756986 23:-0.0083527676 24:-0.0014770445 25:-0.0013855181 26:0.00011582159 
1 1:-1156.6004 2:-85.573728 3:-61.531956 4:0.23433188 5:-0.071275218 6:0.17551284 7:-0.75427673 8:-0.19240115 9:0.025658732 10:0.37926088 11:0.2220822 12:0.14018917 13:-0.041529842 14:-0.030135176 15:0.0046025488 16:0.0080433445 17:-0.018817632 18:-0.013311157 19:-0.00094334297 20:-0.0057221605 21:0.024151646 22:0.0071496929 23:-0.013451935 24:-0.0089319996 25:0.01584661 26:0.010222442 
0.4352410830243058 1:3332.2596 2:-304.02283 3:97.753293 4:6.4493252 5:2.60261 6:-0.042942667 7:0.73837936 8:-1.1140676 9:-0.71932568 10:0.23454896 11:-0.15220013 12:-0.21295342 13:-0.21574329 14:-0.013494142 15:-0.026684415 16:0.11098932 17:0.068217941 18:-0.029781115 19:0.0055275403 20:0.011947102 21:0.012486615 22:0.00048671559 23:-0.0028072783 24:-0.0039719692 25:0.0009561903 26:-0.0026404591 
0.43481508752007 1:2034.3799 2:-327.7664 3:-42.608715 4:4.3100937 5:-2.1666365 6:-0.49033258 7:-1.3356576 8:1.0051526 9:0.19700536 10:-0.069878902 11:-0.51036406 12:0.1084153 13:-0.053353734 14:0.03006963 15:0.17792934 16:0.088656278 17:-0.026377279 18:0.029498232 19:0.012887558 20:-0.0085750808 21:-0.013619137 22:0.0025300911 23:-0.012540386 24:0.0061960318 25:0.00066867819 26:-0.0012394911 
0.4352410830243058 1:1390.4529 2:-214.87691 3:-3.9872023 4:-9.9983265 5:1.7085961 6:0.65269994 7:0.98736516 8:0.92817978 9:-0.38280777 10:0.33820819 11:0.080429787 12:-0.078402719 13:-0.16049903 14:0.017884315 15:0.035596354 16:-0.06545568 17:0.046120298 18:0.04989167 19:-0.049651468 20:-0.0058904427 21:-0.014119437 22:-0.016180856 23:0.00025958895 24:0.0080651522 25:0.0054289507 26:0.0028841599 
0.4355888409632854 1:-38.937799 2:-161.50649 3:-49.020779 4:-0.33303797 5:2.7885085 6:1.0473785 7:-0.46242142 8:-1.6095338 9:0.71833554 10:-0.1976514 11:0.24491563 12:0.18451112 13:0.25890364 14:-0.10624502 15:0.046417029 16:0.024985419 17:0.037305976 18:0.054965076 19:0.017399368 20:-0.018811191 21:-0.0070494248 22:-0.0099800458 23:0.0047813071 24:-0.016374072 25:-0.0036816599 26:0.00029921837 
0.4352411074762337 1:6445.0434 2:-599.4215 3:32.848911 4:0.35318299 5:-1.4407129 6:-0.11822008 7:-0.13122871 8:0.15249648 9:0.41461138 10:-0.19833699 11:0.22212815 12:0.092042937 13:0.1613296 14:-0.0027248042 15:-0.080666758 16:-0.087184259 17:-0.045725604 18:-0.018836465 19:0.004604868 20:-0.00043116681 21:0.0046569849 22:0.004779902 23:0.0071377163 24:0.00067555972 25:-0.00091559369 26:0.0010135048 
-1 1:-1156.1196 2:-85.142735 3:-61.210409 4:0.34164483 5:-0.9579788 6:-0.20884926 7:0.47231812 8:-0.45378027 9:0.4791639 10:0.15768472 11:-0.30101023 12:-0.018504736 13:0.062495838 14:0.022581271 15:-0.019651885 16:0.059385614 17:-0.057809594 18:0.0018658298 19:-0.033659686 20:0.043835358 21:-0.014002207 22:0.0019810701 23:0.021617969 24:-0.0093467003 25:0.010484109 26:-0.0023309009 
-1 1:-1157.2044 2:-85.601533 3:-61.505827 4:0.2406391 5:1.3148354 6:0.57701207 7:-0.080704998 8:-0.48204957 9:-0.046413518 10:0.52409655 11:0.41977566 12:0.079561934 13:-0.061987091 14:0.055698202 15:0.028731282 16:-0.056559343 17:-0.033280284 18:0.01030565 19:0.0034731878 20:-0.014003679 21:0.0078215297 22:0.014184221 23:-0.007068054 24:0.0042719009 25:0.0055830993 26:-0.013060895 
-1 1:-1134.1651 2:-60.414954 3:-31.400057 4:1.1193874 5:-0.9941728 6:-2.2311537 7:-2.0862587 8:-1.0390394 9:0.14827808 10:-0.29138756 11:0.0091545639 12:0.14940601 13:-0.11537786 14:-0.017163343 15:-0.066863983 16:0.0018472743 17:0.020147187 18:-0.039771246 19:-0.063731093 20:-0.02236185 21:-0.0051571674 22:-0.0071180362 23:-0.0039094704 24:0.0010780016 25:-0.0060358501 26:-0.0016441716 
-1 1:-1065.7126 2:-47.835599 3:-37.334728 4:1.0392907 5:-2.7692044 6:0.27272008 7:0.26414395 8:0.15904256 9:-1.2913776 10:-0.53323222 11:0.16160306 12:-0.48615861 13:0.15076786 14:-0.2681106 15:-0.041347007 16:0.041027821 17:0.0013490959 18:0.02729718 19:-0.0071611319 20:-0.024689486 21:0.007762918 22:0.01176422 23:0.005851041 24:0.0068555654 25:0.0034082487 26:-0.00057763763 
-1 1:-431.00657 2:322.66983 3:296.97026 4:10.215849 5:-1.5248254 6:4.5633225 7:-0.63482104 8:-0.43696044 9:-0.66683215 10:0.28381241 11:-0.25724901 12:0.15848292 13:0.16241135 14:-0.0688036 15:0.034891281 16:-0.046802329 17:-0.015801833 18:-0.00069324993 19:-0.012614581 20:0.0067752386 21:7.1061337e-005 22:-0.0071465286 23:-0.0028318828 24:-0.0006306089 25:-0.00033650081 26:-0.0004245172 
-1 1:-977.42339 2:21.034468 3:35.76722 4:3.0010988 5:-0.92844367 6:0.43122544 7:0.38763494 8:-0.72582671 9:0.49067634 10:0.41772327 11:-0.15764032 12:-0.017945603 13:-0.34178485 14:-0.061055512 15:0.0096038523 16:-0.040563872 17:0.010404093 18:-0.0060430373 19:0.020840259 20:-0.030716912 21:-0.023649368 22:0.024778446 23:0.014434732 24:0.00063286231 25:-0.0053821525 26:0.004598227 
-1 1:-1139.8855 2:-77.483398 3:-55.44853 4:0.5088527 5:-1.6906087 6:0.46556073 7:-0.62049194 8:-1.3756048 9:-0.050356323 10:0.2074518 11:0.42464222 12:0.011785148 13:0.035277073 14:0.14143415 15:0.018856016 16:0.030020727 17:0.015479625 18:0.0043858378 19:0.023793021 20:0.032034663 21:0.0053426853 22:-0.010973264 23:0.0082320558 24:0.026448382 25:-0.0034480938 26:0.0033048913 
