svm_type c_svc
kernel_type rbf
gamma 0.0625
nr_class 2
total_sv 13
rho -0.761555
label 1 5
nr_sv 10 3
SV
0.1671548339868275 1:-418.9711 2:-72.769254 3:-8.8517965 4:2.7348728 5:3.017297 6:0.60370343 7:-0.44601722 8:0.6859788 9:-0.23476745 10:0.24268913 11:-0.19754185 12:0.095285721 13:-0.042655157 14:0.042029425 15:0.0070471891 16:0.0002257044 
0.2273750633264539 1:-414.90694 2:-74.283803 3:-9.4592506 4:2.7326992 5:-5.5594045 6:-1.6880385 7:-0.66668801 8:-0.55507436 9:0.21668211 10:-0.36184465 11:-0.11043727 12:0.022227297 13:-0.029865228 14:-0.00012156583 15:0.019539364 16:0.0017811319 
0.9368256755701521 1:-419.47968 2:-72.893003 3:-8.396431 4:3.0393199 5:0.17967908 6:-0.096023819 7:-0.93094323 8:0.014599979 9:0.50567539 10:0.24074402 11:0.073878323 12:-0.052144481 13:-0.11273308 14:-0.016763635 15:-0.038472691 16:-0.0004229811 
0.238381898950066 1:-320.74686 2:-18.493358 3:8.8044887 4:2.0479866 5:3.1859451 6:0.45528166 7:-0.23473293 8:1.410306 9:0.23429876 10:-0.50314224 11:0.067265863 12:-0.045033889 13:-0.0054624802 14:-0.016715953 15:0.020850861 16:-0.00015602884 
0.238344711335181 1:-356.32022 2:-52.217565 3:-4.0875093 4:0.68835769 5:1.4873645 6:0.75483686 7:0.79735655 8:-0.84750387 9:-0.52318686 10:-0.18930599 11:-0.065093399 12:-0.13183243 13:-0.023149458 14:0.0099600807 15:-0.0077156899 16:-0.011124754 
0.2384573880388711 1:-343.96252 2:-32.143234 3:-3.0042248 4:-0.59778232 5:-1.2739333 6:0.62966675 7:0.66691012 8:-0.050112123 9:-0.60610469 10:0.20005934 11:0.11967766 12:0.016784088 13:-0.075616582 14:-0.050758016 15:0.02740322 16:0.0090548113 
0.2383519198146292 1:-81.954047 2:-41.507407 3:-17.466926 4:-14.040951 5:1.7016161 6:-3.7031219 7:0.52585219 8:0.31894749 9:-0.13062611 10:0.027346136 11:-0.032034609 12:0.011092421 13:0.060356469 14:-0.041120907 15:-0.019049958 16:0.001155981 
0.2383447113351812 1:97.798778 2:51.255318 3:17.803402 4:-12.59215 5:-2.4247706 6:1.2808232 7:2.1139222 8:0.39705745 9:0.45415304 10:0.035934592 11:-0.053206674 12:-0.0020505492 13:-0.040523018 14:0.028562868 15:-0.0041083141 16:0.0012683556 
0.2383818986925719 1:-171.04725 2:44.346941 3:30.867726 4:1.1365549 5:3.44791 6:-0.34250315 7:0.22868666 8:-1.2027826 9:0.062124454 10:-0.27441192 11:0.078020372 12:0.1340378 13:-0.024408981 14:0.012314481 15:-0.012685715 16:0.0018081215 
0.2383818989500661 1:-306.18868 2:-53.615959 3:-4.9616967 4:-0.19365186 5:-1.0103047 6:-0.60905007 7:0.079205835 8:0.013655715 9:0.19106685 10:0.27035842 11:0.14970785 12:0.048677773 13:0.048527661 14:0.026359069 15:0.025986371 16:-0.016179253 
-1 1:-343.33531 2:-22.01455 3:8.7808603 4:7.0828787 5:-3.4078376 6:2.1830433 7:-0.027680211 8:0.54784791 9:-0.26923473 10:-0.092523866 11:-0.001156872 12:0.066176533 13:0.089662845 14:-0.034258993 15:-0.036958702 16:-0.0025532109 
-1 1:-420.83298 2:-73.591156 3:-8.7682352 4:2.9343308 5:0.13369913 6:0.083850564 7:0.0046145575 8:-0.2205415 9:0.0041884221 10:0.055722606 11:0.078620781 12:-0.068520223 13:0.092920925 14:0.074162052 15:-0.0038302733 16:0.014022767 
-1 1:451.20139 2:157.3882 3:-76.19409 4:0.72301244 5:0.86046561 6:1.3614539 7:-0.00091173323 8:-0.3160025 9:0.17175957 10:-0.074278002 11:0.0025741171 12:0.022415568 13:0.010269802 14:-0.0092566787 15:0.0026361216 16:0.00032733034 
