svm_type c_svc
kernel_type rbf
gamma 0.0294118
nr_class 2
total_sv 25
rho -0.203755
label 4 3
nr_sv 14 11
SV
0.7965652026335872 1:34.171658 2:912.60239 3:494.64992 4:-12.722698 5:0.96132725 6:-0.45559139 7:-0.3276548 8:-0.69072329 9:0.54789583 10:-0.059026716 11:-0.36840462 12:0.55961065 13:0.35307509 14:0.019328127 15:-0.027750993 16:0.023505635 17:-0.052386371 18:-0.002543587 19:-0.0031405635 20:0.0053061672 21:0.0069990954 22:0.0026291598 23:-0.0016646129 24:0.0038045346 25:-0.0022776701 26:-0.00072324699 27:0.00024195444 28:-0.0010402622 29:8.8631118e-005 30:-0.0010777177 31:-0.0021263625 32:0.00077248184 33:0.0003213091 34:-0.00023895633 
0.7687142916916604 1:-940.2701 2:-106.2117 3:-41.683551 4:1.3565068 5:1.0550566 6:0.23216318 7:-0.54829929 8:3.5940945 9:0.84141997 10:0.13114441 11:0.33659291 12:0.66805454 13:-0.38481016 14:-0.19060647 15:0.14855779 16:-0.020929349 17:-0.050085832 18:-0.0043177799 19:0.013103586 20:0.0017957657 21:-0.015050823 22:0.0043891675 23:-0.0043488104 24:0.0074750423 25:-0.0023481469 26:-0.001852013 27:-0.0036498735 28:-0.0010934869 29:-0.00079898754 30:-0.0011725614 31:0.00051717116 32:0.00091518904 33:-3.7626669e-005 34:-0.00034245409 
0.7965652026335872 1:-761.33601 2:-30.723979 3:-24.677921 4:2.5136942 5:0.84849708 6:-3.834738 7:-0.0009370862 8:-1.0204517 9:0.10535584 10:0.35596215 11:-0.12907405 12:-0.33367728 13:-0.24027585 14:-0.087383197 15:0.016371926 16:-0.033831831 17:-0.084894069 18:-0.020287597 19:-0.029484086 20:-0.017503614 21:-0.0075780847 22:-7.9528546e-005 23:-0.014830715 24:0.0036521915 25:-0.013518451 26:-4.6707018e-005 27:0.0054729814 28:-0.0078803865 29:-0.0036943569 30:0.0050252606 31:-0.0020300865 32:0.00076417332 33:0.0052279933 34:-0.0038160353 
0.7963545747266823 1:-814.15153 2:-57.277912 3:-33.264417 4:2.3517776 5:-1.4098505 6:0.9236412 7:-0.15255767 8:-0.68205042 9:-1.1840327 10:-0.10355834 11:0.1699333 12:0.082793656 13:0.056720792 14:0.13712846 15:0.18395846 16:0.021276339 17:-0.031286054 18:0.055794047 19:0.050992536 20:0.022372325 21:0.010685683 22:0.032186389 23:0.018581294 24:-0.0061120084 25:-0.0082275538 26:-0.0040519343 27:0.012139319 28:-0.0069244149 29:-0.0020695612 30:-0.0038351325 31:-0.0033755765 32:-0.0010111283 33:0.00050148167 34:-0.0012232296 
0.7963221015353812 1:-832.46755 2:36.94613 3:50.511673 4:6.8759752 5:0.064408478 6:-1.331905 7:-0.28825243 8:-0.1723163 9:0.92788741 10:0.12447159 11:0.58944314 12:0.012184238 13:0.22513192 14:-0.1075824 15:-0.061466483 16:-0.057397442 17:0.10207241 18:0.0092863283 19:0.0097716649 20:0.021906494 21:0.019590637 22:0.0151569 23:-0.02052744 24:0.0067356873 25:0.0030245073 26:0.0011554821 27:0.016871181 28:-0.0014249441 29:0.0043054962 30:0.0042322402 31:0.0080773678 32:-0.0033904288 33:-5.6103e-005 34:-0.00036358033 
0.6990817248445541 1:-935.59326 2:-102.30951 3:-39.608706 4:1.5260278 5:2.6991951 6:0.5055514 7:-0.16209799 8:-0.33528304 9:-0.45598737 10:0.70940505 11:0.07490149 12:-0.038226666 13:0.10862652 14:0.11010716 15:0.091949422 16:-0.032371135 17:-0.054897557 18:0.0030869238 19:-0.025050747 20:0.0089219213 21:0.017208881 22:0.0085529756 23:-0.008997708 24:0.001106728 25:-0.0083528605 26:0.0052633131 27:-0.0046321138 28:0.0052930988 29:0.0044376259 30:0.0043359659 31:-0.0010571941 32:8.0065845e-005 33:0.0035045365 34:0.0061581063 
0.7963545747266823 1:401.88813 2:733.55357 3:315.61185 4:28.220963 5:-1.1274341 6:2.1507414 7:0.55571035 8:1.1216052 9:-0.27241756 10:0.10875577 11:0.26361897 12:-0.58399303 13:-0.40971487 14:0.092769007 15:0.042336008 16:0.032099979 17:0.049006146 18:0.0070814586 19:-0.003673206 20:-0.0028593512 21:0.0019644403 22:-0.0058679904 23:0.0029863918 24:0.0030162953 25:0.00031096764 26:0.0020890179 27:-0.0029203883 28:0.0016412639 29:0.00042717284 30:0.0012480987 31:-0.0019833682 32:0.0013911247 33:-0.00018903003 34:-5.179898e-005 
1 1:-939.90702 2:-106.0877 3:-41.667542 4:1.330488 5:3.0057898 6:-0.1380703 7:-0.30376176 8:-0.11742366 9:1.360945 10:0.025325249 11:-0.058968673 12:-0.088214502 13:-0.18283221 14:0.094759903 15:-0.13676307 16:-0.018959226 17:-0.0057150599 18:0.0043172416 19:0.022275847 20:-0.0027978126 21:-0.0072151669 22:0.0040116652 23:0.0090808122 24:-0.013332694 25:-0.0078751829 26:-0.0058420912 27:0.010364779 28:0.017863417 29:-0.0049976583 30:0.0031666774 31:-0.0093986884 32:-0.0032937869 33:-0.0019691976 34:0.00038899968 
0.7958240332969049 1:-542.89943 2:118.00293 3:43.587731 4:7.697948 5:-3.1562158 6:-0.80641227 7:-1.1559122 8:-0.89821227 9:-0.60804365 10:0.14692221 11:0.14277685 12:0.12008888 13:-0.20897005 14:-0.34582373 15:-0.12219688 16:0.071253392 17:-0.0657197 18:-0.0081836852 19:-0.0097767901 20:-0.028881305 21:-0.011253261 22:-0.0022170874 23:0.011020384 24:-0.017528458 25:-0.008041527 26:-0.01160915 27:0.0038727224 28:-0.0014883899 29:-0.00195597 30:-0.0032111323 31:0.0082866465 32:-0.0021901273 33:-0.0017283174 34:0.0024815038 
0.7961086979941395 1:-894.2611 2:-75.887584 3:-28.147632 4:2.3061753 5:-0.15628413 6:1.0056864 7:-1.9364364 8:-1.241014 9:0.22114458 10:0.22215167 11:0.35115476 12:-0.13359231 13:0.16832119 14:0.013185071 15:0.037488145 16:-0.086709865 17:-0.027562609 18:0.0093138518 19:-0.0067584843 20:0.01315591 21:-0.015558356 22:-0.034505638 23:0.0079567611 24:0.022676288 25:0.016358834 26:-0.0099895307 27:0.0056404975 28:0.0039202151 29:-0.0020417657 30:-0.012314512 31:-0.0012735284 32:0.0022253324 33:0.0012636403 34:0.00015457809 
0.8726412723018391 1:-939.2361 2:-106.26901 3:-41.944791 4:1.1301337 5:-3.0094456 6:1.6232747 7:-1.076533 8:-0.50710645 9:-0.47673576 10:-0.15572133 11:-0.036745106 12:0.45360589 13:-0.31514743 14:0.074816077 15:-0.20206411 16:0.0050265266 17:0.035985603 18:-0.012354953 19:0.040061163 20:0.009115991 21:0.0021239014 22:-0.0048642746 23:0.0092674938 24:0.00020242501 25:0.016984254 26:0.0051194021 27:-0.0016474462 28:-0.0022174969 29:0.00079120123 30:0.010435333 31:-0.0016368976 32:0.003203161 33:0.0054509987 34:0.00015979021 
0.4930235708681493 1:-940.09034 2:-106.64597 3:-41.815569 4:1.3118367 5:-1.3821387 6:0.11220881 7:3.993841 8:0.61089702 9:0.89794389 10:0.024620127 11:-0.054852965 12:-0.0081799377 13:0.23023707 14:0.0928964 15:-0.0038350991 16:0.00067549811 17:-0.0029802356 18:0.0079340164 19:0.0065063862 20:-0.011820187 21:0.013319404 22:-0.013481795 23:0.0032351706 24:-0.010459969 25:0.0049592905 26:-0.0010646794 27:0.0057905503 28:-0.0069851138 29:-0.014480394 30:-0.0015977627 31:0.0027460369 32:0.0053524563 33:0.0010224831 34:0.0017044351 
0.7962223763734164 1:-670.48 2:13.408298 3:27.060259 4:-8.3429133 5:-3.3795078 6:-6.7845511 7:2.2946166 8:-0.176474 9:-0.60663889 10:-0.26031927 11:0.51139819 12:0.087395579 13:-0.13510426 14:0.18677921 15:0.0019240253 16:-0.0095261079 17:-0.02467189 18:-0.00352366 19:0.0050548645 20:-0.016448856 21:-0.0050348261 22:0.0013615125 23:0.0063050826 24:0.0084901749 25:0.0056950311 26:0.0080949043 27:-0.0012851035 28:0.011807522 29:0.0082247207 30:-0.0021386449 31:-0.00043622938 32:0.0011759166 33:-0.001606503 34:7.5164906e-005 
0.7962223763734164 1:-629.42214 2:50.63124 3:7.6457306 4:-23.89318 5:-3.8443538 6:-2.5378427 7:-2.2210871 8:1.0425449 9:0.10526406 10:-0.4611801 11:-0.14761152 12:-0.41271035 13:-0.20811202 14:-0.10849447 15:0.024278369 16:-0.032082214 17:0.081672325 18:0.0061114302 19:-0.035854284 20:0.017299205 21:0.022760636 22:0.0089057366 23:0.0016836332 24:0.0016768318 25:-0.0029603664 26:-0.0074652949 27:-0.0031438559 28:-0.0041581969 29:-0.0063543838 30:0.00043861538 31:-0.0031286389 32:0.0023746244 33:-0.00088566701 34:0.0017784907 
-1 1:-766.66406 2:14.200479 3:14.39776 4:4.7991436 5:3.1938818 6:-4.0045066 7:-1.0362002 8:0.73011365 9:-0.0062803618 10:-0.22956204 11:-0.34754176 12:-0.33768815 13:0.21166542 14:0.025966798 15:0.057683531 16:-0.016078198 17:-0.020042563 18:-0.02313311 19:0.085311213 20:0.024034824 21:0.0046807629 22:-0.028636596 23:0.006923633 24:-0.010879805 25:-0.00019053951 26:-0.0010082174 27:-0.010192013 28:-0.0039281742 29:0.0020806986 30:0.0026905362 31:0.0042126981 32:-0.0023904332 33:-0.00020053156 34:0.00020284945 
-1 1:-924.56737 2:-103.01847 3:-43.067686 4:1.4294423 5:-1.7011396 6:1.5435539 7:1.7298425 8:-0.97728613 9:0.66975248 10:-0.065438929 11:0.11880894 12:-0.049691459 13:0.12975501 14:-0.035650842 15:0.012021387 16:0.018887787 17:0.011152246 18:-0.0016686594 19:0.0021145602 20:-0.00088732422 21:0.0062580228 22:0.018165173 23:-0.0015279947 24:0.0043339008 25:0.0016721328 26:-0.029701219 27:-0.022299978 28:0.0033917109 29:0.0044164787 30:0.0015380814 31:0.00017070155 32:-0.0023095227 33:0.0016865517 34:-0.001317136 
-1 1:2089.7018 2:521.30216 3:-299.14864 4:-0.021951232 5:-0.38221148 6:0.2140783 7:-0.56198634 8:1.0165749 9:-0.40608302 10:0.26249267 11:-0.075549511 12:-0.094872491 13:0.40777961 14:0.15210898 15:-0.1216613 16:-0.023816293 17:0.0014284894 18:0.0029203163 19:0.013371695 20:-0.010603234 21:-0.026065176 22:0.015490957 23:0.010784074 24:0.024921754 25:-0.015522024 26:-0.0005359158 27:-0.0025007715 28:0.0015789192 29:-0.0053175429 30:0.0057154687 31:0.0036439189 32:0.0023058491 33:-0.0014401098 34:-0.00015322219 
-1 1:-938.70653 2:-106.56086 3:-41.705715 4:1.2785829 5:4.0244016 6:-0.4097375 7:0.25007727 8:0.81326968 9:-0.34939349 10:-0.17535807 11:0.12454016 12:0.1751431 13:-0.0018047846 14:0.36758691 15:-0.04884337 16:0.098678167 17:0.032559189 18:-0.048565648 19:-0.08172552 20:0.038952791 21:-0.004776911 22:-0.0062169119 23:0.020664383 24:-0.0060246786 25:-0.0027626525 26:-0.0058229837 27:0.0034786019 28:-0.0048414689 29:0.0021485488 30:-0.0012174426 31:0.0026537406 32:-0.001943208 33:0.00044079428 34:-0.0010061868 
-1 1:-919.93202 2:-108.65239 3:-41.681718 4:1.2310215 5:-1.1532665 6:1.0489151 7:-0.60309854 8:-1.0866931 9:0.71094551 10:0.2590667 11:-0.52516046 12:0.1018333 13:-0.45085759 14:0.49498835 15:-0.033580344 16:-0.089666356 17:-0.0067306245 18:0.014725443 19:0.0068736313 20:-0.012295899 21:0.00011026054 22:0.0038815845 23:-0.014672043 24:0.0003070673 25:-0.0036735631 26:0.0013246873 27:-0.0035367128 28:-0.010474625 29:0.0051083509 30:-0.0052046002 31:0.0035620191 32:0.00066957591 33:-0.0043567548 34:0.00019226858 
-1 1:-940.75175 2:-107.2869 3:-42.347356 4:1.2371438 5:-0.22253916 6:0.90193787 7:-1.1931955 8:0.095964857 9:0.0011666697 10:0.39359129 11:0.27551296 12:-0.073562374 13:0.3262003 14:-0.097481505 15:-0.045900823 16:0.0035221543 17:-0.0053873233 18:0.0081898378 19:-0.011737247 20:0.015195667 21:0.0029077238 22:0.0045652249 23:-0.0062055935 24:-0.029206424 25:-0.0045586793 26:0.0069775727 27:-0.0066676241 28:0.0061382666 29:0.005754749 30:-0.002155396 31:-0.00018882468 32:0.010225737 33:-0.0018430251 34:-0.0025757934 
-1 1:3547.1749 2:-308.99729 3:159.57512 4:7.6670391 5:1.8432755 6:-2.4125847 7:-0.070287663 8:-1.3548349 9:-0.19767704 10:0.24012768 11:-0.15617229 12:0.33565708 13:-0.022719174 14:-0.058493313 15:0.12839309 16:-0.10951138 17:0.12234228 18:0.022436821 19:-0.019479089 20:-0.0031777345 21:-0.031241544 22:0.006731501 23:0.0088724703 24:-0.010670167 25:0.0039859359 26:0.0021876502 27:-0.0074571095 28:0.0021290461 29:-0.0072968435 30:0.0020823106 31:0.0011957469 32:-3.828016e-005 33:0.00018896455 34:8.8840134e-005 
-1 1:2248.39 2:-361.34748 3:36.447928 4:3.845236 5:-2.4384064 6:0.70319579 7:-0.82151256 8:1.3860505 9:0.1187869 10:-0.021506956 11:-0.60777851 12:-0.010426076 13:0.26337718 14:0.060419076 15:0.11770845 16:-0.0031347034 17:-0.00088931973 18:-0.0073857362 19:-0.018022078 20:-0.052962691 21:0.018163153 22:-0.007613942 23:0.010683217 24:-0.0013735344 25:0.0068150836 26:-0.0086846918 27:0.013429928 28:0.0043246947 29:0.010758235 30:0.0053014025 31:0.00041651248 32:0.00083360445 33:0.00055603138 34:-0.00061623119 
-1 1:-434.59397 2:-140.50281 3:-27.162361 4:0.78218625 5:-1.3878346 6:1.0633988 7:-0.050206425 8:-0.63712406 9:-1.0509422 10:0.25034546 11:0.26104354 12:0.27101558 13:0.092951392 14:0.010593794 15:0.067738541 16:0.023037484 17:-0.024068288 18:-0.0113527 19:-0.013558288 20:0.0033597441 21:0.022348882 22:-0.028199522 23:-0.016761668 24:0.0052377992 25:0.0028271051 26:-0.0016168661 27:-0.0024434667 28:-5.9410928e-005 29:-0.0082868755 30:0.011871245 31:-0.0036283077 32:-0.0027137693 33:-0.0060811594 34:-0.0012169502 
-1 1:176.36531 2:-186.03366 3:-11.693907 4:0.37463973 5:2.9156773 6:0.29514421 7:-1.6911142 8:-0.73925553 9:0.81356997 10:-0.22851737 11:0.59139274 12:-0.090917583 13:0.15725091 14:0.044942458 15:0.014592489 16:0.099999798 17:0.0098235783 18:-0.029064762 19:0.0053651779 20:-0.060466381 21:0.018765968 22:0.014344217 23:0.011745249 24:0.0046368187 25:0.0065306689 26:0.015681213 27:-0.0089087145 28:-0.0081819165 29:-0.0036282965 30:-0.0031256168 31:-0.0020622221 32:-0.0015474923 33:-0.00023757613 34:4.1866204e-006 
-1 1:6657.2551 2:-637.69779 3:174.18621 4:-1.0727764 5:-1.1075105 6:0.50518455 7:0.13761135 8:0.30980239 9:0.30638834 10:-0.22345465 11:0.1791781 12:-0.20276632 13:-0.08078155 14:0.043020665 15:-0.10935262 16:0.046289061 17:-0.10794276 18:0.0036430595 19:0.00603448 20:0.039502391 21:0.0051667601 22:0.0062306014 23:-0.0084114732 24:0.0042296415 25:0.0014484242 26:0.0014591039 27:-0.0008725658 28:-0.00062552331 29:-0.0012784652 30:-0.0014745999 31:0.00076911369 32:-0.00011288347 33:-0.000106635 34:0.00025606493 
