svm_type c_svc
kernel_type rbf
gamma 0.0454545
nr_class 2
total_sv 17
rho -0.348149
label 1 2
nr_sv 10 7
SV
0.7853601549656446 1:-341.53241 2:-72.6732 3:-2.2658834 4:3.4880008 5:-4.7066367 6:-1.4487173 7:0.037906744 8:0.36084367 9:0.18515344 10:-0.15348653 11:-0.27871388 12:-0.21183037 13:-0.20414037 14:-0.10363541 15:0.059880012 16:-0.036713525 17:-0.0097904139 18:0.016554608 19:0.013823062 20:-0.013879196 21:0.0053505498 22:-0.001501959 
1 1:-346.07176 2:-71.051645 3:-1.1213136 4:3.4605642 5:0.74442438 6:0.78751996 7:-0.507414 8:-0.1376681 9:0.083355775 10:0.42949376 11:0.046330963 12:0.18249913 13:-0.14804918 14:-0.16411483 15:0.028913984 16:-0.032538071 17:0.023625167 18:-0.0051499043 19:-0.038508732 20:0.0019589412 21:-0.0032380406 22:0.0015387792 
0.6513008103754601 1:109.31041 2:112.90095 3:-1.3325954 4:-24.649792 5:-1.6412905 6:0.42589039 7:-1.9490915 8:-0.86445378 9:-0.42827418 10:-0.11938387 11:0.080867123 12:-0.014291039 13:-0.00095828854 14:-0.028883339 15:0.04130679 16:0.0003004535 17:0.00096027913 18:-0.0070328348 19:0.0031946449 20:0.0067086889 21:0.0065639014 22:0.0014054576 
0.65182228018773 1:-246.30569 2:-16.675606 3:7.9157931 4:-0.4866702 5:3.3227898 6:1.4846528 7:-0.53844854 8:0.93191635 9:0.93263629 10:-0.16949855 11:0.22081948 12:-0.067138155 13:-0.23691524 14:-0.022717598 15:-0.017406232 16:0.038967396 17:0.037928984 18:0.00027256446 19:0.017048694 20:0.011928655 21:0.0057669152 22:-0.00068097288 
0.65182228018773 1:-204.89247 2:38.162721 3:19.147778 4:-0.047888749 5:1.5470915 6:0.29710535 7:-0.02053217 8:-0.36780577 9:0.2515679 10:0.53645097 11:-0.099611136 12:-0.16771603 13:0.30528818 14:-0.053093316 15:-0.053978055 16:-0.023937076 17:0.010882326 18:0.032302857 19:0.0043690377 20:-0.0037275046 21:0.0075000168 22:0.00032956954 
0.6520166379693251 1:-269.83392 2:-31.454227 3:-2.1165396 4:-1.5307036 5:-0.72174781 6:0.96378668 7:1.1705681 8:0.16878106 9:-0.17301668 10:-0.32771403 11:-0.38079484 12:0.29291354 13:0.22157037 14:-0.080054038 15:-0.00076752225 16:-0.015168644 17:0.021871016 18:-0.017401824 19:0.005496407 20:0.014437049 21:0.0019354178 22:-0.0059144741 
0.6520166379693251 1:3122.3627 2:-155.9448 3:3.859892 4:2.424313 5:-0.0098072966 6:0.082036683 7:-0.15355745 8:-0.092353867 9:-0.02734076 10:-0.01101938 11:-0.0057635822 12:-0.0058027281 13:0.0082032689 14:-0.0071734785 15:0.0024684457 16:0.00051523727 17:0.00087047202 18:-0.0003760847 19:0.00063853471 20:0.0010173255 21:0.00072253541 22:-6.9662715e-005 
0.6520166379693251 1:-8.1405236 2:-47.900697 3:-17.323206 4:-13.536549 5:2.6296962 6:-2.2399199 7:-0.070347055 8:1.2196053 9:-0.70170349 10:-0.12952104 11:0.084016862 12:0.073073412 13:-0.0047032765 14:0.03410532 15:-0.069143435 16:-0.035316625 17:0.017313867 18:0.019208086 19:-0.0053769271 20:-0.012502682 21:-0.002719172 22:-0.001208563 
0.65182228018773 1:173.4153 2:45.574664 3:3.8494618 4:-17.166217 5:-2.5959086 6:0.68843601 7:2.2616789 8:0.357112 9:1.0182207 10:0.3080854 11:0.088900292 12:0.018695286 13:-0.038248119 14:0.082844946 15:0.020057477 16:0.0027498316 17:-0.021894052 18:0.0042108771 19:-0.010872931 20:0.0023491813 21:-0.0048382639 22:-0.00056336866 
0.65182228018773 1:-95.4055 2:45.778565 3:20.372021 4:-4.9203558 5:3.0354726 6:-0.62644931 7:-0.0060880605 8:-0.42034405 9:-0.18525622 10:-0.090053083 11:-0.20912033 12:-0.21593755 13:-0.062768605 14:-0.071780994 15:-0.010243316 16:0.04166568 17:-0.013732752 18:-0.02233246 19:0.0031752736 20:-0.014801241 21:-0.013462229 22:-0.0029484311 
-1 1:-346.42133 2:-71.631603 3:-1.7359884 4:3.5701288 5:-1.3479667 6:-0.32262812 7:-0.13649065 8:-0.7731484 9:0.50857598 10:-0.46199578 11:0.47837543 12:0.19583483 13:0.037372477 14:-0.077163777 15:-0.10142683 16:0.0091551984 17:-0.050219255 18:0.0026025756 19:-0.0022286457 20:-0.0044913248 21:0.0014385023 22:-0.00061503257 
-1 1:-347.58503 2:-71.967523 3:-1.4415665 4:3.4391532 5:0.62274792 6:0.78064615 7:-0.30532772 8:-0.59547469 9:-0.2420668 10:0.39346476 11:-0.16342919 12:0.12437925 13:-0.1594274 14:0.17177107 15:-0.020819719 16:0.025342888 17:-0.0090628074 18:-0.013639335 19:-0.0079469307 20:-0.010250066 21:0.012218036 22:-0.0047723835 
-1 1:182.29009 2:171.40031 3:4.5274795 4:6.838723 5:1.5948971 6:-6.4433398 7:1.0439282 8:-0.42721072 9:-0.21651433 10:0.09930088 11:0.176286 12:0.16292067 13:-0.083043807 14:0.00017524256 15:0.041901872 16:-0.0021948535 17:0.0016928396 18:0.00031381767 19:0.0053001797 20:0.0091322077 21:0.0033727224 22:0.00016533207 
-1 1:-316.4172 2:-40.380292 3:8.4068203 4:4.2583829 5:-1.5177699 6:-2.8311075 7:-1.8292764 8:1.2125162 9:0.29838866 10:-0.078829195 11:-0.21667501 12:-0.12227814 13:0.16589815 14:0.07100258 15:-0.003102919 16:0.023481751 17:-0.031111551 18:-0.011572681 19:-0.019044231 20:0.011377383 21:-0.00041966009 22:0.0011414154 
-1 1:475.28364 2:309.29761 3:10.53267 4:9.9530023 5:-2.0185186 6:3.4488614 7:-0.11441459 8:0.90744102 9:-0.69258052 10:-0.078001557 11:0.07539724 12:0.11578987 13:-0.074704184 14:0.0061000857 15:-0.028820744 16:-0.017276133 17:-0.012773625 18:0.0024136919 19:-0.0032399361 20:-0.0037908577 21:2.8713071e-005 22:0.00015099431 
-1 1:-328.6328 2:-65.4508 3:-2.6139972 4:3.724006 5:-2.3292439 6:0.19095984 7:-1.1207199 8:-0.48047645 9:-0.22773365 10:0.39315552 11:-0.054346353 12:0.14524373 13:-0.09195802 14:0.062921789 15:-0.032527568 16:-0.0048104836 17:0.00566864 18:0.020354409 19:0.022995066 20:0.014334131 21:-0.015125799 22:-0.00090967933 
-1 1:386.368 2:183.64381 3:-39.007824 4:5.8753759 5:1.9104839 6:0.53845351 7:-0.41365043 8:-0.34112763 9:0.81493743 10:0.10259935 11:-0.22901124 12:-0.16963425 13:0.062911131 14:-0.02119962 15:-0.0069564853 16:0.0069208472 17:-0.0095833697 18:-0.0041420564 19:0.0013345775 20:-0.0010491262 21:-0.0018767329 22:-0.00029024786 
