svm_type c_svc
kernel_type rbf
gamma 0.037037
nr_class 2
total_sv 21
rho -0.468161
label 4 2
nr_sv 13 8
SV
0.532273394884923 1:1216.1467 2:286.23492 3:-7.4679363 4:3.1837692 5:0.33662117 6:0.27554005 7:0.34468407 8:-0.31972255 9:0.06751309 10:0.0026239243 11:0.035449128 12:-0.099542572 13:-0.064206556 14:-0.027076638 15:-0.00024101527 16:-0.0075237194 17:-0.0077691655 18:-0.0070213841 19:0.002145277 20:-0.0070563907 21:0.00097682546 22:-0.001600173 23:0.0006527278 24:-0.00040818872 25:-0.00084753195 26:0.00076925824 27:0.00014949613 
1 1:-267.08442 2:13.716547 3:1.5448963 4:1.1504968 5:-1.605968 6:-0.49624316 7:1.9440735 8:-0.49938914 9:-0.77414727 10:0.11219285 11:-0.16240843 12:0.11624833 13:0.030839559 14:0.27527692 15:0.15201966 16:0.014539867 17:-0.018680617 18:0.011027482 19:-0.0046449914 20:-0.0066742254 21:-0.0095383158 22:-0.025465704 23:-0.0023039883 24:0.0079782963 25:0.0034676576 26:0.0024994796 27:-0.00080024428 
0.6911071889711372 1:-266.92729 2:13.465714 3:1.4469064 4:1.408011 5:-3.2800673 6:-1.9128406 7:1.2591698 8:0.37614173 9:0.18370526 10:0.12756657 11:-0.54076323 12:-0.24163327 13:-0.036630956 14:0.017084198 15:-0.081907653 16:0.0010668261 17:-0.025030874 18:-0.010779642 19:0.01448882 20:0.015391498 21:-0.020391123 22:0.010555765 23:0.015475254 24:0.00073056796 25:0.0011903042 26:0.001548478 27:0.0020075453 
0.5316227950479454 1:-81.523537 2:-43.377542 3:-1.9626158 4:4.8310643 5:0.98292269 6:4.3410078 7:-0.52163844 8:-0.95873491 9:0.12155496 10:0.39894891 11:-0.17453511 12:-0.052981691 13:0.099614016 14:-0.098476176 15:-0.029603809 16:0.0014326255 17:-0.0023302791 18:-0.0020633264 19:0.0046530399 20:0.012662685 21:0.0054541929 22:-0.0089830242 23:-0.0092482499 24:0.0036447914 25:-0.0081389522 26:0.0023169791 27:0.0035030015 
0.531872685767792 1:-139.87232 2:-30.64209 3:-0.57558696 4:4.8045534 5:-0.40535371 6:-0.80255319 7:0.13424603 8:-1.1628744 9:0.84565301 10:-0.029276115 11:0.33426149 12:-0.089916238 13:0.030485835 14:0.0031853395 15:-0.015936854 16:0.06376552 17:-0.073683555 18:0.053696543 19:0.03601565 20:-0.022535427 21:-0.0024560093 22:0.0030225253 23:0.00052281526 24:-0.0057283104 25:-0.0018411675 26:0.00055265474 27:-0.00022216195 
0.3941958910924666 1:-261.17442 2:15.031437 3:2.0459135 4:0.9479398 5:2.8598611 6:0.31006658 7:-0.23989371 8:-0.50130109 9:0.23763757 10:0.42170132 11:0.12646332 12:-0.31561707 13:0.26537568 14:-0.22923753 15:-0.089438366 16:-0.0097335473 17:-0.024318447 18:-0.017766666 19:0.0050692361 20:0.015009553 21:-0.018817918 22:-0.0025922902 23:-0.006297668 24:0.0067382642 25:0.0050332086 26:-0.0015354481 27:-0.0032727864 
1 1:-267.23656 2:14.44064 3:1.7942216 4:1.0402799 5:2.9719983 6:1.2464853 7:-0.14123028 8:0.47915999 9:-0.99465347 10:-0.14515464 11:-0.044843821 12:0.45665733 13:-0.13921408 14:-0.19455292 15:-0.097361027 16:-0.020133841 17:0.049264283 18:0.013516473 19:0.0094265694 20:-0.026216189 21:-0.023960567 22:0.0029903178 23:0.0054500293 24:0.0015484297 25:-0.0047520416 26:0.0020095992 27:-0.00064207033 
0.532273394884923 1:191.12468 2:-56.617894 3:0.65380772 4:3.5334225 5:-2.1866643 6:0.2267843 7:-1.15247 8:-0.61540817 9:0.4369437 10:0.42950641 11:-0.046153132 12:0.0050177933 13:-0.28899458 14:0.27814314 15:0.044125948 16:-0.05500354 17:0.031650864 18:-0.020491442 19:0.010078803 20:0.00070370254 21:0.002568398 22:0.0088854147 23:-0.00011386246 24:-0.0043254522 25:-0.0063945345 26:0.0036028791 27:-0.0032115527 
0.5321057296057437 1:-210.97081 2:10.765005 3:2.0950253 4:1.0787923 5:0.032404014 6:-0.8809421 7:-1.7323129 8:-0.3333114 9:-0.69604078 10:0.0028485876 11:0.27127362 12:0.079443275 13:0.070490555 14:-0.049354171 15:0.036401187 16:0.026171927 17:-0.058843672 18:-0.011276476 19:-0.014636793 20:0.0035417062 21:0.022284358 22:0.0049966735 23:0.016443328 24:0.015490819 25:-0.0043949969 26:-2.5581832e-005 27:-0.00039393778 
1 1:-267.97263 2:14.00626 3:1.6359345 4:1.165905 5:3.9999416 6:1.3866738 7:-0.1008195 8:0.0014005527 9:0.6330768 10:-0.74744708 11:0.027727034 12:0.26189274 13:-0.12893018 14:0.29267555 15:-0.046081586 16:0.0038699516 17:-0.030447584 18:-0.036295618 19:0.03395909 20:0.016487032 21:0.00087760118 22:-0.0029056071 23:-0.00092958467 24:0.00073793244 25:0.0022158067 26:-0.00069200509 27:0.00026319754 
0.1916239407546123 1:-267.73594 2:14.09866 3:1.5301577 4:0.57071585 5:-0.89753177 6:0.54006853 7:4.4636991 8:-0.20997086 9:-0.071761183 10:0.110775 11:0.14305657 12:0.21573597 13:0.31819082 14:0.054852621 15:-0.10800173 16:-0.025320181 17:0.016880294 18:-0.0057411209 19:-0.0066432775 20:-0.0037998312 21:0.021348525 22:0.013027532 23:-0.00354513 24:-0.00023500439 25:-0.0017566669 26:-0.0013180068 27:-0.00050545502 
0.5314624894952285 1:27.840866 2:-46.803951 3:-15.216855 4:-24.437736 5:-1.4068653 6:-0.022424998 7:0.44101403 8:-0.19137488 9:0.13637099 10:-0.040248312 11:0.23273173 12:-0.062611763 13:-0.059225721 14:-0.061217425 15:-0.010850373 16:-0.016975108 17:-0.022187745 18:-0.018546978 19:0.0059717266 20:-0.008111704 21:-0.0052370043 22:-0.0051214126 23:0.00013377164 24:-0.00024443636 25:-0.0031810569 26:0.00076589404 27:0.00029280676 
0.5314624894952285 1:75.639591 2:-59.282958 3:-30.179191 4:8.1482955 5:-0.22813305 6:-1.1712105 7:-0.71045002 8:0.77068144 9:-0.18814864 10:-0.0010564024 11:-0.079145374 12:0.25010712 13:0.16654208 14:0.064773607 15:0.0013112079 16:0.018450311 17:0.019083224 18:0.017249266 19:-0.0053406958 20:0.017480951 21:-0.0026670367 22:0.0039806298 23:-0.0016100806 24:0.00097679308 25:0.0020036703 26:-0.0019108093 27:-0.000372723 
-1 1:-267.60944 2:14.102337 3:1.6948357 4:1.1417 5:1.4446947 6:0.046498766 7:-0.074473167 8:-0.41320276 9:0.70361218 10:-0.3111061 11:0.054190965 12:-0.098200216 13:0.11841678 14:0.12392114 15:0.066381836 16:0.021740895 17:-0.01489409 18:-0.0056579309 19:-0.075134258 20:-0.006270905 21:-0.020649272 22:0.0075372811 23:-0.0022986256 24:-0.0041588446 25:-0.0048796203 26:-0.00022797831 27:0.00038893786 
-1 1:-268.05103 2:13.962422 3:1.612026 4:1.3100232 5:-0.81720593 6:-0.75859021 7:0.038005313 8:-0.23300341 9:-0.73154959 10:-0.079211745 11:-0.078657281 12:0.17181409 13:-0.12601847 14:-0.27995092 15:-0.0082545566 16:0.04730899 17:-0.037727234 18:-0.013872286 19:-0.01315396 20:0.021777522 21:0.011246305 22:-0.0090751841 23:0.00011716194 24:-0.020651448 25:0.00052811581 26:0.0023523305 27:-0.0010374073 
-1 1:-269.22815 2:14.281813 3:1.7118083 4:1.2141414 5:1.3413359 6:-0.043751879 7:-0.72535486 8:-0.14489946 9:-0.05793529 10:0.40723146 11:0.43508533 12:-0.070507074 13:0.077846245 14:0.17667399 15:-0.032645225 16:-0.074921128 17:0.040640148 18:0.0050501446 19:-0.0030973426 20:-0.00054427347 21:-0.00045659822 22:-0.014130348 23:0.014343955 24:-0.010752851 25:0.0023553083 26:-0.0044533672 27:0.0015489294 
-1 1:312.7199 2:-22.44769 3:3.3286345 4:-2.9863313 5:-4.0030457 6:5.9074671 7:-0.73494797 8:-0.52779768 9:0.47884916 10:0.039772579 11:-0.15050362 12:0.28432319 13:-0.050193567 14:-0.061665596 15:0.01668371 16:0.037398169 17:0.002795798 18:0.0043337319 19:-0.012708048 20:-0.0075859109 21:-0.00010100961 22:0.0047085171 23:0.0059706134 24:0.00059136268 25:0.0098897996 26:-0.002357328 27:-0.00049214774 
-1 1:-226.56608 2:29.875486 3:2.7378423 4:-1.0722841 5:-2.4688364 6:0.015350461 7:-2.2229541 8:1.5890318 9:-0.094744249 10:-0.30913635 11:-0.43263456 12:-0.1713281 13:0.52650899 14:0.071356248 15:-0.081036718 16:-0.051568388 17:-0.01982678 18:0.001766195 19:0.0044446194 20:-0.024124875 21:0.011382239 22:-0.0058398104 23:-0.0052634685 24:-0.0031430647 25:-0.00099270612 26:0.00010088351 27:-0.00065824184 
-1 1:636.16724 2:-39.161762 3:8.7523763 4:-3.764492 5:0.92063554 6:-2.3797601 7:-0.14486243 8:-0.63302445 9:0.30203347 10:-0.061712756 11:-0.19005513 12:0.3968203 13:0.082001707 14:-0.14507576 15:0.11066723 16:-0.12674745 17:-0.040131349 18:0.028051312 19:0.00029455664 20:0.018094909 21:-0.0023520008 22:0.0037262279 23:-0.0035358604 24:0.0010630805 25:0.00025343908 26:-0.0014109315 27:0.00055768821 
-1 1:-38.74429 2:8.9086109 3:3.9627075 4:-1.0271883 5:-0.7247696 6:-0.63957677 7:-0.15249428 8:-0.33231132 9:-0.93914973 10:0.080215426 11:-0.22477122 12:-0.1129813 13:-0.14409152 14:0.016570057 15:0.11867603 16:0.056126222 17:0.0064439487 18:-0.016093852 19:0.022383617 20:-0.0068736453 21:-0.0047101501 22:0.0066953805 23:-0.00796163 24:-0.0020726466 25:-0.005281794 26:-0.0089156405 27:0.00022554975 
-1 1:-249.48076 2:10.694482 3:1.7416142 4:1.7048619 5:-0.9843499 6:-1.966762 7:-1.2618606 8:-0.14917384 9:-0.60209574 10:0.17546194 11:0.39294586 12:0.07647454 13:-0.015025998 14:0.018792401 15:0.035463793 16:-0.0090379778 17:0.0028074041 18:-0.024263165 19:0.0036598662 20:-0.01476107 21:-0.0019785679 22:0.014741956 23:-0.012510896 24:-6.0454533e-005 25:0.0098506569 26:0.0036595539 27:0.0024973507 
