svm_type c_svc
kernel_type rbf
gamma 0.0344828
nr_class 2
total_sv 23
rho 0.226565
label 1 3
nr_sv 10 13
SV
1 1:-1144.511 2:-64.740077 3:-55.261529 4:4.8639489 5:3.2141591 6:1.3114133 7:0.14528211 8:0.84049059 9:0.029006751 10:0.14606074 11:-0.28887161 12:0.15775664 13:0.22798526 14:-0.090412395 15:0.1487055 16:0.021113251 17:-0.045723724 18:-0.0039638389 19:-0.064735273 20:-0.041159727 21:-0.007913718 22:-0.0033662604 23:0.0061257061 24:-0.0039491091 25:-0.010491003 26:-0.0041794797 27:0.0012911755 28:-1.3832284e-005 29:-0.00043849384 
1 1:-1140.2346 2:-65.68021 3:-55.570159 4:4.7277194 5:-5.307245 6:-1.0664461 7:-0.88951916 8:0.12784126 9:-0.72624393 10:-0.22384142 11:0.015872951 12:-0.1517166 13:-0.11528835 14:-0.13060085 15:0.05109657 16:-0.0068918219 17:-0.0057070259 18:-0.012130037 19:-0.019176661 20:0.0096573642 21:0.013592447 22:0.010845839 23:0.0076214411 24:-0.01770136 25:-0.0061437287 26:-0.0031863522 27:-0.0089222618 28:-0.006970916 29:0.003248556 
1 1:-733.05863 2:135.82264 3:121.45821 4:-22.723726 5:-0.96246097 6:-0.60249695 7:-1.6345877 8:0.30429736 9:-0.027019087 10:-0.093600586 11:-0.16465888 12:-0.30062445 13:-0.083322137 14:-0.12514787 15:0.013050126 16:-0.0230397 17:0.00075055396 18:-0.030120898 19:-0.022201285 20:-0.011847083 21:-0.025851646 22:0.0030323416 23:-0.0060216615 24:-0.0047975245 25:0.025660514 26:0.0016213824 27:0.0036639662 28:0.0038662052 29:-5.253415e-005 
1 1:-1058.3591 2:-13.771803 3:-1.6743298 4:1.1273287 5:3.2876362 6:0.54098255 7:0.51594272 8:1.3341134 9:0.5791171 10:0.34422933 11:0.1345882 12:-0.56036221 13:-0.046910824 14:-0.073121813 15:0.054065702 16:-0.002526121 17:0.017565942 18:0.0056240824 19:-0.0055556008 20:0.055367625 21:0.0040639489 22:0.0094781256 23:0.015906099 24:0.009269695 25:0.003732438 26:-0.0081791454 27:-0.00062721763 28:-0.00074991562 29:-0.0007606314 
1 1:-1029.0577 2:31.011531 3:42.871392 4:0.94633261 5:1.9031803 6:-0.047788801 7:-0.31964421 8:-0.5757606 9:-0.23251171 10:0.32963285 11:0.68068728 12:0.12389939 13:-0.11382918 14:0.03844802 15:-0.044415042 16:-0.014586741 17:0.04090981 18:-0.0011546391 19:0.0036324515 20:-0.012562811 21:-0.039937427 22:0.00011805878 23:-0.014286742 24:0.0060409106 25:-0.008932992 26:-0.013528384 27:-0.0089207769 28:-0.0015407959 29:-9.2670158e-005 
1 1:-1077.5708 2:-23.548494 3:-21.804569 4:-0.012975229 5:-1.0740025 6:0.43106865 7:0.83313316 8:-0.30977407 9:-0.67516304 10:0.11909808 11:-0.63470715 12:0.1201789 13:0.2275426 14:0.040791754 15:0.032268628 16:-0.014998522 17:-0.021805139 18:0.029686068 19:0.026922913 20:0.014406075 21:-0.023419772 22:0.010326798 23:-0.0063376117 24:0.0080022252 25:0.012500106 26:0.0012120063 27:0.0010160275 28:-0.009186869 29:-0.0028735012 
1 1:2258.9933 2:199.91787 3:560.83821 4:21.851112 5:-1.1906712 6:0.62350017 7:-0.17428017 8:0.43300935 9:0.070705614 10:0.15847403 11:-0.20542705 12:0.1832368 13:-0.059475645 14:-0.032793385 15:0.015587251 16:0.010068493 17:0.0049451766 18:-0.00076138779 19:0.0027899244 20:0.0026061706 21:0.0045384406 22:-0.0021334362 23:4.6665835e-005 24:-0.00091843489 25:-0.00073809954 26:-0.00040393321 27:0.00026085579 28:-0.0001335914 29:-8.2939197e-005 
1 1:-658.90295 2:82.158994 3:104.77523 4:-14.339765 5:-2.4152291 6:0.27305044 7:2.3530959 8:-0.70925525 9:-0.083374878 10:-0.060478367 11:0.32806609 12:-0.17169471 13:-0.14879406 14:0.1104479 15:0.081080701 16:0.091712107 17:0.035044143 18:0.02590059 19:-0.012318779 20:-0.014417671 21:-0.011176353 22:0.018715899 23:0.010990604 24:-0.0038174201 25:-0.00877523 26:0.0098900882 27:0.0034791382 28:0.0017353003 29:-0.00048697856 
1 1:-923.53689 2:47.583325 3:68.202496 4:-3.4195638 5:3.5788324 6:-1.0491576 7:-0.33148123 8:-1.0123942 9:-0.10181384 10:0.22193883 11:0.24112642 12:-0.32189618 13:-0.11610117 14:-0.097840866 15:-0.058673971 16:-0.0076283245 17:-0.075250745 18:-0.018741933 19:0.029953406 20:-0.017217566 21:0.010247916 22:-0.0088019465 23:0.0036709751 24:-0.0058627509 25:-0.0095975507 26:0.00044586319 27:0.012685554 28:-0.0068931008 29:-0.00046007671 
1 1:-1037.1382 2:-39.230721 3:-24.963189 4:1.3974359 5:-0.82388603 6:-0.22709535 7:0.16848364 8:0.18839986 9:-0.36931153 10:0.19146134 11:0.091528423 12:0.24340999 13:0.084322363 14:0.098398474 15:0.0088629302 16:-0.024354085 17:0.0034804333 18:0.013854301 19:-0.0029529647 20:0.012631122 21:0.0029228267 22:0.0056948367 23:-0.0073097947 24:0.010711799 25:0.0020515032 26:-0.0048830933 27:0.012798993 28:0.0026209935 29:0.0088672801 
-0.7732686022702335 1:-1015.6416 2:6.0358391 3:8.6181245 4:5.9266393 5:-1.7170519 6:-2.715537 7:1.5862661 8:0.58187491 9:0.021324876 10:0.26246935 11:0.31137471 12:-0.061019539 13:0.070407147 14:0.10105705 15:-0.060424019 16:-0.0050809661 17:-0.044828946 18:-0.031373245 19:-0.012945276 20:-0.028074554 21:0.01704474 22:-0.0097822405 23:0.0029163529 24:0.020977227 25:0.01531043 26:0.0038170013 27:-0.007530346 28:-0.00057638306 29:-4.8429817e-005 
-0.9901644942194263 1:-1143.8392 2:-64.550627 3:-54.815143 4:4.9645054 5:-3.3317645 6:-0.19813755 7:-0.92037933 8:-0.53470972 9:0.73101595 10:-0.54178068 11:0.1071954 12:0.037750173 13:-0.031652732 14:-0.079351282 15:0.09014919 16:0.1642331 17:-0.031426814 18:0.0068679318 19:-0.0021112971 20:0.024047599 21:-0.011481749 22:-0.027353115 23:-0.0074496587 24:0.014970988 25:-0.004291451 26:0.0015510419 27:0.0018720907 28:-0.00055049588 29:-0.00048310976 
-0.697596608662157 1:-1129.5439 2:-61.560596 3:-55.496111 4:5.0192987 5:-2.8295535 6:0.85077508 7:0.29343316 8:-1.4344221 9:1.5202944 10:0.57553581 11:0.10275702 12:0.1920602 13:0.243932 14:-0.137608 15:-0.043590803 16:-0.043104704 17:0.012729049 18:-0.014212697 19:0.012163756 20:-0.0013889831 21:-0.0016758324 22:0.0072358674 23:0.0050571277 24:-0.015994387 25:0.0065377214 26:0.00039413157 27:-0.00083575483 28:0.00028899146 29:0.00079507621 
-0.7735175039345316 1:-845.05976 2:57.529422 3:25.566702 4:6.7929344 5:-0.36779636 6:2.9306922 7:0.67148892 8:0.20029455 9:0.1261487 10:-1.3233211 11:0.27668488 12:-0.22438834 13:0.12448476 14:-0.0066694166 15:-0.11307415 16:-0.12450577 17:-0.0034311219 18:-0.0064816509 19:-0.00086851523 20:-0.0086630962 21:-0.0014695375 22:0.0012624376 23:-0.00078604265 24:0.0039886017 25:-0.00074679888 26:-0.0004064689 27:0.0010929819 28:-0.00060696545 29:0.00010948047 
-0.7735175039345316 1:1883.7366 2:613.24193 3:-132.63768 4:3.1403319 5:-0.6192995 6:-0.46880424 7:0.49949965 8:1.0414142 9:-0.43009627 10:0.10070912 11:-0.0033967213 12:0.026549298 13:0.14794456 14:0.025084185 15:-0.19755536 16:0.085159759 17:0.026423044 18:0.00070406519 19:-0.0050581672 20:0.01257448 21:-0.017619478 22:-0.020878266 23:0.01262603 24:-0.016610336 25:-0.00060723116 26:-0.00054636847 27:0.0029446236 28:0.00055198838 29:-0.00012906089 
-1 1:-1143.6791 2:-65.356373 3:-55.151763 4:4.9945914 5:3.2459663 6:1.4457813 7:0.72975975 8:0.27418744 9:0.14711757 10:-0.14254303 11:-0.17976268 12:0.14797408 13:-0.21151749 14:0.32835957 15:0.02502033 16:0.078772451 17:-0.044613022 18:-0.055089393 19:0.013800223 20:0.016436474 21:0.0020421669 22:0.00485083 23:-0.015266977 24:-0.018256042 25:0.0069053167 26:0.002335106 27:-0.0036519178 28:0.00064302811 29:0.0010658673 
-0.6922491802987039 1:-1124.9083 2:-67.345487 3:-55.945354 4:4.8774219 5:-2.0426845 6:0.10353404 7:-1.3042418 8:-0.47572936 9:0.46548211 10:0.23302074 11:-0.68642411 12:-0.27280808 13:-0.19626829 14:0.38036322 15:-0.13191296 16:-0.036170452 17:0.021054738 18:0.022754044 19:-0.025668146 20:-0.014648683 21:0.0039562029 22:0.00043459184 23:0.0045873059 24:0.007141415 25:-0.0085488508 26:-0.0026304798 27:0.0014134497 28:0.00031451785 29:-0.0011878141 
-0.4322699751719183 1:-1145.7303 2:-65.855922 3:-55.991065 4:4.9145887 5:-1.024268 6:0.12423458 7:-0.69395884 8:0.68686403 9:-0.39074729 10:0.3292947 11:0.20212077 12:0.074150639 13:0.098379829 14:-0.1431313 15:-0.092216576 16:0.013387757 17:0.024881296 18:-0.028705924 19:-0.01851635 20:0.017952381 21:0.013768535 22:0.020501633 23:-0.023549272 24:0.0054919808 25:-0.013377443 26:0.010724111 27:0.0043029263 28:0.0024213054 29:-0.0040722362 
-0.7732686022702335 1:2043.4715 2:-329.64324 3:-84.210715 4:4.081968 5:-2.305702 6:-0.90286294 7:0.469889 8:1.4693552 9:0.19120244 10:0.017021672 11:-0.16821613 12:-0.43083849 13:0.07368717 14:-0.01071324 15:0.10076053 16:0.0018724909 17:0.037157771 18:0.0036188586 19:0.058842148 20:-0.033285299 21:7.6777739e-005 22:-0.0040882001 23:-0.015279664 24:-0.0072722425 25:-0.0059822019 26:-0.0056498003 27:0.0017945035 28:0.0027058707 29:-0.00034925829 
-0.7735172502273613 1:1400.903 2:-212.96081 3:-35.303457 4:-9.2908148 5:1.408551 6:1.6047413 7:0.94714893 8:-0.64377175 9:-0.13916651 10:0.075959443 11:-0.098392651 12:0.072512896 13:-0.15392373 14:-0.14317637 15:-0.01862205 16:0.02486955 17:0.09970365 18:0.010901432 19:-0.028657394 20:-0.0064331578 21:0.030813306 22:-0.020906174 23:-0.013485601 24:-0.00086048075 25:0.012133612 26:-0.0031359212 27:0.00096842672 28:-0.0046456427 29:-0.00016181372 
-0.7735172502273613 1:-195.98057 2:128.32545 3:140.86294 4:-37.951287 5:-0.81167236 6:1.1766383 7:-0.5413318 8:0.47780273 9:0.070186879 10:0.11888235 11:0.01446529 12:0.12426777 13:0.24307129 14:0.12423204 15:-0.017994482 16:-0.0021340155 17:-0.04096961 18:0.013126252 19:0.01800905 20:0.0096225488 21:0.022393025 22:-0.0084777649 23:-0.0025381893 24:0.00035189712 25:-0.011772538 26:-0.0027008682 27:-0.007289511 28:0.00067307846 29:0.00021252311 
-0.7738346655784208 1:-28.552227 2:-149.42843 3:-59.86415 4:2.8060012 5:2.104581 6:1.4340691 7:-2.0100139 8:0.57514705 9:-0.11842925 10:-0.11188827 11:0.23763973 12:0.25210311 13:0.014356392 14:0.0095404097 15:-0.02368023 16:0.11752082 17:0.041806511 18:0.0075311837 19:0.03778377 20:-0.030640213 21:0.0090961187 22:0.015893851 23:0.021642796 24:0.0087405948 25:0.0099536379 26:0.004521255 27:-0.0013550368 28:-0.0015159452 29:0.00051492561 
-0.7732783632051211 1:6452.7694 2:-631.81652 3:-73.111538 4:-6.7202611 5:-0.51196467 6:0.19009712 7:0.17608776 8:0.42926845 9:0.27257482 10:0.047344746 11:0.11384346 12:0.18157627 13:-0.17375745 14:-0.059458427 15:-0.084905699 16:-0.030336067 17:-0.076654681 18:0.013047978 19:-0.01700463 20:0.0085067585 21:-0.01560685 22:0.0082668475 23:0.0027091257 24:0.0025787136 25:-0.00098434877 26:0.002740141 27:-0.00029092063 28:-0.0011551377 29:0.00045078519 
