svm_type c_svc
kernel_type rbf
gamma 0.0588235
nr_class 2
total_sv 13
rho -0.360927
label 2 6
nr_sv 8 5
SV
0.9161258885590223 1:-528.16397 2:-73.504924 3:0.52736873 4:0.49261225 5:-0.15970813 6:0.31858115 7:0.82957665 8:-0.14139844 9:-0.36187984 10:-0.38991716 11:-0.03682828 12:0.1908815 13:0.0053579707 14:-0.035775816 15:-0.021949063 16:-0.013291485 17:0.0023798808 
0.2493227016022578 1:-529.3143 2:-73.888545 3:2.1672544 4:1.9377603 5:-1.2163434 6:-0.053051776 7:0.34596891 8:-0.012038483 9:0.31595707 10:0.089243765 11:0.08327224 12:-0.11457946 13:0.014553277 14:0.014314691 15:-0.047064828 16:0.0059323864 17:0.013559075 
0.6388046500370969 1:-18.554471 2:207.48134 3:-4.7616637 4:3.822395 5:-1.2393585 6:-1.3032882 7:0.11346863 8:0.073369304 9:0.0046562338 10:-0.09734367 11:0.067452772 12:0.025998842 13:-0.0085461113 14:0.00095969022 15:0.00062092492 16:0.0032713874 17:-0.00095441177 
0.6391910268879125 1:-501.76947 2:-37.643763 3:-1.1989368 4:0.4401166 5:-2.2094655 6:1.2565575 7:-0.67025491 8:0.7761411 9:-0.3001273 10:0.15180417 11:-0.097859515 12:-0.012203312 13:0.066749691 14:0.01127379 15:-0.0050895364 16:-0.0036388277 17:-0.0041827563 
0.6391910268879125 1:263.30958 2:367.0203 3:4.1765586 4:-2.3380838 5:0.29668465 6:-0.56659888 7:-0.11332317 8:0.43408875 9:-0.056877383 10:-0.021335026 11:0.050705641 12:0.011703504 13:0.0063410702 14:-0.010305264 15:-0.0058603212 16:-0.0022428312 17:-0.00035558655 
0.6395335215422842 1:-331.99884 2:45.394583 3:1.021405 4:0.19210022 5:-0.28321378 6:0.31249288 7:1.0440357 8:-0.14900799 9:-0.20108982 10:-0.20639851 11:-0.24095553 12:-0.11781415 13:-0.03035815 14:0.070294391 15:0.024522938 16:0.0011342486 17:-0.0022107385 
0.6387658429104898 1:-510.73332 2:-66.32063 3:0.89327899 4:-0.9348988 5:-1.2279044 6:0.44445847 7:0.67631157 8:0.011112927 9:0.09888491 10:0.032166629 11:0.26525299 12:0.074490569 13:-0.016380338 14:-0.021198331 15:0.012209717 16:0.024233996 17:-0.011120967 
0.6390653415730241 1:189.94029 2:222.92404 3:-0.87399726 4:1.3278719 5:1.0537508 6:1.8836465 7:-0.42855797 8:-0.71810613 9:0.18597187 10:0.093208171 11:-0.0087489845 12:0.014169451 13:0.0021943511 14:-0.008074457 15:-0.0044278002 16:0.00024646588 17:-8.6238984e-005 
-1 1:-524.22045 2:-73.67206 3:-0.34210514 4:-1.1860717 5:0.56627473 6:-0.13080456 7:-1.2197652 8:-0.14711838 9:-0.45283351 10:-0.18767461 11:0.24240129 12:-0.029483245 13:-0.11057552 14:0.027504081 15:-0.010320099 16:0.0031306318 17:0.002432901 
-1 1:-528.74748 2:-73.90488 3:0.072851716 4:2.7319606 5:4.4724129 6:0.06421314 7:0.34944652 8:0.51580646 9:-0.046450078 10:0.17463581 11:0.11838125 12:0.0079444803 13:0.016519058 14:0.0054051542 15:0.0093998171 16:-0.00029025646 17:0.00028846647 
-1 1:4468.8348 2:-101.23536 3:0.72819222 4:0.85847347 5:-0.12476622 6:-0.037828622 7:-0.06534953 8:0.0031835621 9:-0.038621659 10:-0.051346925 11:0.042605991 12:0.0067324021 13:0.013250171 14:0.008118558 15:-0.0012380702 16:-0.0001181972 17:-0.0020791431 
-1 1:-448.35327 2:-58.97808 3:-0.47564625 4:-1.4280208 5:-0.36390532 6:-0.42380147 7:0.22404329 8:-0.19507886 9:0.34883722 10:0.24827555 11:0.15757104 12:-0.013376502 13:-0.020023603 14:0.023884843 15:-0.013612254 16:-0.022730179 17:-0.014141984 
-1 1:-123.18064 2:-66.878281 3:1.0775045 4:0.80807522 5:-0.15624355 6:-0.29109134 7:-0.46886551 8:0.17310802 9:0.33580261 10:0.17289526 11:-0.40442235 12:0.14407234 13:-0.11797542 14:-0.0081813175 15:0.0027547518 16:0.0034720077 17:0.00026667974 
