svm_type c_svc
kernel_type rbf
gamma 0.05
nr_class 2
total_sv 16
rho -0.457129
label 1 6
nr_sv 10 6
SV
1 1:-593.39493 2:-25.408971 3:-45.874083 4:0.037099463 5:-4.1005778 6:-1.0459854 7:0.47163414 8:-0.032935037 9:0.30725568 10:-0.095414476 11:-0.2960921 12:-0.029018451 13:-0.3469594 14:-0.047928376 15:0.014884029 16:0.0075381293 17:0.025314687 18:0.0011712788 19:-0.010669493 20:-0.0068106433 
0.6572572977956952 1:-598.02957 2:-25.486737 3:-44.317617 4:-0.35518012 5:1.8652593 6:-0.95817157 7:0.69325349 8:-0.49112253 9:0.4576476 10:0.46447733 11:-0.13256794 12:-0.016996236 13:0.010657407 14:0.054638208 15:0.079978205 16:-0.04991664 17:-0.0052661565 18:0.004660948 19:0.0048025238 20:0.0031235101 
0.5423080927907904 1:-153.53547 2:49.043353 3:152.74443 4:-5.8470716 5:-2.2023201 6:-1.0341322 7:0.84067249 8:-0.95017511 9:0.7251446 10:-0.25745545 11:0.012004203 12:-0.11116707 13:0.15059085 14:-0.013919043 15:-0.013313465 16:-0.0017150016 17:-0.0015896905 18:-0.0052096421 19:-0.00029550628 20:-2.5517606e-006 
0.5430926532926605 1:-502.52919 2:-0.62148629 3:12.797863 4:1.5084149 5:4.7450132 6:0.031102725 7:-0.01459298 8:-1.210338 9:-0.79849528 10:-0.23683712 11:-0.23840211 12:0.20659985 13:-0.24819634 14:-0.031311508 15:-0.028592637 16:-0.012466342 17:-0.021667122 18:0.00064318277 19:0.00064163138 20:-0.00020321043 
0.5430926532926605 1:-464.91408 2:16.472664 3:68.494051 4:8.0620589 5:3.7051411 6:0.075018596 7:-0.26956985 8:0.23524199 9:-0.17612825 10:0.40987688 11:0.15805177 12:-0.054322715 13:0.12033122 14:-0.14977906 15:0.033793921 16:0.0068697296 17:0.0046282589 18:-0.0076804559 19:-0.0083016438 20:-0.00071106517 
0.5428779517260409 1:-523.64418 2:-14.095821 3:-2.5931786 4:-0.5261424 5:0.094171523 6:0.53952953 7:0.99640591 8:0.65262357 9:-0.071427099 10:-0.49088127 11:0.25690476 12:0.28382897 13:0.14873623 14:0.00022910775 15:0.018445293 16:-0.023650647 17:-0.0093984515 18:0.027428263 19:-0.0084128348 20:-0.0032296639 
0.5430926532926605 1:-262.99821 2:16.859104 3:-11.482036 4:-13.226792 5:0.047850516 6:-1.3364029 7:-2.89672 8:0.28269628 9:-0.21903471 10:0.069484862 11:0.096442021 12:0.069129435 13:-0.0046583541 14:-0.045505652 15:0.018387833 16:0.0014185633 17:-0.0041405099 18:0.0021720648 19:0.00072216112 20:-0.00059053883 
0.5430926532926605 1:-89.991728 2:67.266403 3:86.708066 4:-5.8968389 5:-2.6909395 6:2.3444212 7:1.3624888 8:0.57616863 9:-0.72064816 10:0.39520708 11:0.0032746188 12:0.063979353 13:-0.19832464 14:0.032246439 15:0.019756163 16:0.011342675 17:0.0049635067 18:0.00049264463 19:0.006214988 20:0.00011380283 
0.5423080927907904 1:-357.49375 2:36.494289 3:79.332299 4:4.2820781 5:4.4435707 6:-0.28596809 7:-1.3675554 8:0.75627031 9:0.096332018 10:-0.0070731623 11:-0.27632762 12:-0.15978346 13:0.0067920837 14:0.14352506 15:-0.022943939 16:-0.0070819066 17:0.010371047 18:0.0047869513 19:-0.0020547689 20:-0.0046540902 
0.5428779517260409 1:-486.54664 2:-6.0931829 3:-23.813246 4:-1.854185 5:0.11595394 6:-0.31129558 7:0.26161228 8:0.06841254 9:0.066919862 10:0.24548865 11:0.097799265 12:0.24864219 13:-0.0086863936 14:0.052842841 15:-0.054099854 16:-0.0034863692 17:0.011376422 18:-0.0072925439 19:-0.014023758 20:0.012902619 
-1 1:-594.35422 2:-26.325973 3:-45.054859 4:-0.052986305 5:-2.3857944 6:-0.24611727 7:0.25468972 8:-0.27051823 9:-0.89329478 10:-0.12042602 11:0.17904971 12:-0.67329424 13:0.10301474 14:0.011814354 15:-0.01738599 16:-0.02605684 17:0.0053924047 18:0.00056548856 19:-0.001954826 20:0.00097131403 
-1 1:-587.00675 2:-26.86992 3:-44.989536 4:-0.021935849 5:-2.4033012 6:-0.086340426 7:0.3475237 8:0.0022002136 9:-0.39464639 10:0.051425894 11:-0.55268081 12:0.1615368 13:0.44406892 14:-0.0095507386 15:-0.0010721735 16:0.032397485 17:-0.00064404752 18:-0.001294711 19:0.0023210705 20:-0.00045500511 
-1 1:4385.0675 2:-393.41825 3:-0.8881945 4:-1.8679309 5:1.4877899 6:0.13041285 7:0.28782568 8:0.0074880731 9:-0.00089267405 10:0.058581451 11:-0.051103565 12:-0.052859793 13:0.011764714 14:-0.0049538939 15:-0.0028720259 16:0.00065388049 17:-0.00014011037 18:0.0016025495 19:-0.002436822 20:-0.00068520916 
-1 1:-518.38139 2:-24.936952 3:-31.082349 4:1.8254972 5:-2.4039605 6:-0.85009735 7:0.39848385 8:0.34714766 9:0.39768802 10:0.45540558 11:0.14381621 12:-0.085444469 13:-0.067058192 14:0.017002386 15:-0.046087753 16:0.018659355 17:-0.043971303 18:-0.00094707551 19:-0.00087000422 20:-0.0059199481 
-1 1:384.56404 2:-65.328429 3:26.646581 4:8.4480492 5:-6.0880121 6:0.43034005 7:-1.4698292 8:-0.0032655917 9:-0.063989742 10:-0.37532761 11:0.050820242 12:0.076099049 13:-0.080417335 14:0.051294301 15:0.05399195 16:0.008082106 17:-0.015840425 18:-0.011427377 19:-0.00039061777 20:0.0055239811 
-1 1:-194.22393 2:-51.65536 3:-33.559308 4:0.56137696 5:0.29412461 6:-0.22104417 7:0.351412 8:0.26931881 9:-0.047804092 10:-0.15115971 11:0.23768119 12:0.29297576 13:0.069253619 14:0.012079146 15:-0.019096144 16:-0.03583604 17:0.014091054 18:-0.030941835 19:0.0082644656 20:-0.0074594107 
